svm_type c_svc
kernel_type rbf
gamma 0.015625
nr_class 3
total_sv 300
rho -0.0710789 0.0452404 -0.0246969
label 3 1 2
nr_sv 100 100 100
SV
1 1 1:1 2:0.61380924 3:0.4568777 4:0.47116576 5:0.26355637 6:0.15487327 7:0.098956572 8:0.081283339 9:0.085927533 10:0.08237894 11:0.061000294 12:0.034598226 13:0.024630584 14:0.022027658 15:0.026340066 16:0.020083191 17:0.0058757816 18:0.0012953463 19:0.0037710955 20:0.005858009 21:0.010663336 22:0.009471339 23:0.0018093276 24:0.00068127142 25:0.0047895005 26:0.0067551573 27:0.0064006218 28:0.0058395123 29:0.0034079648 30:0.0018269789 31:0.0052694423 32:0.008895329 33:0.010734187 34:0.0088154884 35:0.0053979724 36:0.0034668462 37:0.0024475184 38:7.0252597e-06 39:0.0012375406 40:0.0029431943 41:0.0049858595 42:0.0056667875 43:0.005255616 44:0.0053453188 45:0.004218135 46:0.0028830098 47:0.0015526975 49:0.00079404973 50:0.0023949485 51:0.0039590994 52:0.0032197252 53:0.0018225446 54:0.0012472093 55:0.0012534628 56:0.0013025899 57:0.0012040627 58:0.0012106417 59:0.0011410253 60:0.0011376425 61:0.0025059238 62:0.0025228258 63:0.00094993214 64:0.00099092202 
1 1 1:1 2:0.49586191 3:0.33921733 4:0.09369838 5:0.14921395 6:0.052024413 7:0.029508286 8:0.020815801 9:0.038484741 10:0.021736355 11:0.023155571 12:0.030992395 13:0.0064100794 14:0.023795097 15:0.035265067 16:0.037231491 17:0.0099428131 18:0.039242436 19:0.021222718 20:0.015083913 21:0.025307032 22:0.021695628 23:0.020001207 24:0.021565572 25:0.023689881 26:0.018533152 27:0.024333223 28:0.014733014 29:0.014872046 30:0.017985475 31:0.016638673 32:0.011641134 33:0.011455598 34:0.0092735403 35:0.0082280373 36:0.0089362166 37:0.0073881132 38:0.0065076411 39:0.0034649045 40:0.0019277734 41:0.0048795004 42:0.0055603895 43:0.0034562224 44:0.00067483235 45:0.002469003 46:0.0070522137 47:0.0041397106 48:0.0035163147 49:0.0042451779 50:0.0010683222 51:0.0039510613 52:0.0032103602 53:0.0042436365 54:0.0019328279 55:0.0035273693 56:0.002725732 57:0.0027903053 58:0.0017990699 59:0.0024704442 60:0.0018343184 62:0.0037124702 63:0.00039719442 64:0.0018541564 
1 1 1:1 2:0.61195281 3:0.49203345 4:0.36083307 5:0.22371376 6:0.21566201 7:0.1058166 8:0.12004173 9:0.095974449 10:0.062718205 11:0.0383056 12:0.027800541 13:0.063156232 14:0.028282976 15:0.057283098 16:0.0051632295 17:0.046171661 18:0.041778054 19:0.021842207 20:0.040571057 21:0.019811266 22:0.03613429 23:0.036931275 24:0.023231341 25:0.02553497 26:0.025549442 27:0.027455802 28:0.029007081 29:0.018439349 30:0.018793738 31:0.026517678 32:0.016182985 33:0.018710836 34:0.016333035 35:0.01723507 36:0.013303584 37:0.013314851 38:0.003315286 39:0.012229623 40:0.0067015394 41:0.005063985 42:0.0047895256 43:0.0051580846 44:0.0044108428 45:0.0044240005 46:0.0043628308 47:0.0025710908 48:0.0064645038 49:0.0063673196 50:0.0021198544 51:0.0056255285 52:0.003629935 53:0.0056519057 54:0.0016910443 55:0.0033576405 56:0.0049313279 57:0.0040658227 58:0.0016925696 59:0.0029131707 60:0.0034309153 61:0.0027406637 62:0.0017057385 64:0.0049050556 
1 1 1:1 2:0.47128865 3:0.34200821 4:0.2107364 5:0.14196533 6:0.067264872 7:0.10815344 8:0.018628812 9:0.079587744 10:0.047646482 11:0.085104677 12:0.061079619 13:0.033130476 14:0.071378994 15:0.0078312592 16:0.040565351 17:0.047219967 18:0.040935681 19:0.019682332 20:0.025452703 21:0.016935261 22:0.033085944 23:0.040724435 24:0.034982966 25:0.027902333 26:0.031852725 27:0.022402269 28:0.024631302 29:0.024435712 30:0.024445645 31:0.026942373 32:0.024193225 33:0.023410004 34:0.016724551 35:0.018023726 36:0.018771101 37:0.017703484 38:0.017129135 39:0.01654254 40:0.017506962 41:0.012279432 42:0.010978613 43:0.008099855 44:0.0062004906 45:0.0075459918 46:0.0057154456 47:0.0080704912 48:0.0059026309 49:0.0054207614 50:0.0025812709 51:0.0019646956 52:0.0030035979 53:0.0025370559 54:0.004693501 55:0.0033233962 56:0.0013711909 57:0.00065817086 59:0.001196547 60:0.0029037683 61:0.0038233759 62:0.0038085774 63:0.0033554501 64:0.00063619187 
1 1 1:1 2:0.73824639 3:0.46863489 4:0.32938022 5:0.1931666 6:0.17929477 7:0.1427032 8:0.096432861 9:0.049999335 10:0.022710865 11:0.060388254 12:0.070257539 13:0.056856012 14:0.018913989 15:0.016212213 16:0.013262255 17:0.011132471 18:0.019800754 19:0.028176825 20:0.022583933 21:0.021997108 22:0.010014352 23:0.012865508 24:0.00061029606 25:0.010150875 26:0.011467824 27:0.0068744986 28:0.0043952454 29:0.0012693354 30:0.011611169 31:0.0074893932 32:0.0039733989 33:0.005251821 34:0.0040169194 35:0.0027165818 36:0.0062348233 37:0.0034615658 38:0.0065310674 39:0.010465656 40:0.0044093572 41:0.0014729781 42:0.0039473615 43:0.0011833038 44:0.00053694932 45:0.0037766435 46:0.0018486987 47:0.00074766241 48:0.0031752548 49:0.002637586 50:0.00068551222 51:0.0017999914 52:0.0028457111 53:0.0021905108 54:0.0029128192 55:0.0018573045 56:0.002043401 57:0.00052341589 58:0.0011709277 59:0.0034701662 60:8.878799e-05 61:0.0014382175 63:0.00033444684 64:0.00098260656 
1 1 1:1 2:0.31276775 3:0.53744884 4:0.2654912 5:0.19506289 6:0.12422735 7:0.055910423 8:0.087356479 9:0.097014221 10:0.074504591 11:0.034322869 12:0.024353245 13:0.01657436 14:0.033748823 15:0.022446666 16:0.0059684742 17:0.0025814128 18:0.010028841 19:0.011477168 20:0.014521108 21:0.0062390253 22:0.012095129 23:0.0075314382 24:0.0088650421 25:0.0030151988 26:0.0037412047 27:0.010192773 28:0.0086685193 29:0.0023945543 30:0.0045100679 31:0.0055685097 32:0.0052901796 33:0.003424156 34:0.0037864223 35:0.005225873 36:0.0038627958 37:0.0024021344 38:0.0047894519 39:0.0062837015 40:0.0041090961 41:0.00041477686 42:0.0038886958 43:0.0063444748 44:0.0033059005 46:0.0029576084 47:0.0056119241 48:0.0043225629 49:0.0018401759 50:0.0022659498 51:0.003878641 52:0.00304715 53:0.0023050464 54:0.0030293641 55:0.0031953876 56:0.0029745215 57:0.0039993071 58:0.0028557362 59:0.0017332313 60:0.0022071612 61:0.0022948278 62:0.0021290206 63:0.002546469 64:0.0030659883 
1 1 1:1 2:0.70079211 3:0.37817121 4:0.23105121 5:0.11652139 6:0.067232647 7:0.032686744 8:0.06883108 9:0.074715864 10:0.072234374 11:0.062038918 12:0.02403266 13:0.04922525 14:0.027318026 15:0.029629818 16:0.035616555 17:0.027612749 18:0.029403829 19:0.033148622 20:0.024505145 21:0.023818378 22:0.033950794 23:0.026105189 24:0.014083603 25:0.004031994 26:0.01184183 27:0.009664091 28:0.017318445 29:0.014407712 30:0.0022220259 31:0.0015294986 32:0.0070134255 33:0.0010680746 34:0.005191415 35:0.0049613751 36:0.0039872536 37:0.0033539575 38:0.00022740789 39:0.0026726036 40:0.001931304 41:0.0024858262 42:0.0040205417 43:0.0037801558 44:0.0035287047 45:0.002862182 46:0.0034024165 47:0.00083170922 48:0.0025811211 49:0.002062478 50:0.0022596331 51:0.0032610313 52:0.00068690851 53:0.001220708 54:0.0010718283 55:0.0010774769 56:0.0030036183 58:0.0019020726 59:0.00084975766 60:0.0020433665 61:0.0025024494 62:0.00062106321 63:0.0018956506 64:0.0025776008 
1 1 1:1 2:0.29334975 3:0.49298573 4:0.22275796 5:0.17842991 6:0.10783093 7:0.024364894 8:0.058589762 9:0.057357375 10:0.044643792 11:0.042343653 12:0.032352097 13:0.031460537 14:0.025076034 15:0.011300345 16:0.012777173 17:0.016806125 18:0.0092582308 19:0.0063035824 20:0.005445367 21:0.0070056128 22:0.0061487171 23:0.004961837 24:0.0063088088 25:0.0035113651 26:0.0035291635 27:0.0026293106 28:0.0030959923 29:0.0037930426 30:0.0036354698 31:0.0009470842 32:0.00033270844 33:0.0021239949 34:0.0016116504 35:0.0016105574 36:0.0015618276 37:0.0045030203 38:0.0047270718 39:0.00069298512 40:0.00094699861 41:0.0011475454 42:0.0024407273 43:0.0028219963 44:0.0014310985 45:0.0010457437 46:0.00078416565 47:0.00069132511 48:0.00078720793 50:0.0012062025 51:0.00080700969 52:0.00089840053 53:4.923962e-05 54:0.00153032 55:0.0020087696 56:0.00076546419 57:0.00075548111 58:0.0016189933 59:0.00094139713 60:0.00049914859 61:0.00013251254 62:0.0016231305 63:0.0014975518 64:0.00071621954 
1 1 1:1 2:0.64673114 3:0.3780763 4:0.1634479 5:0.12825111 6:0.090892991 7:0.059553732 8:0.125496 9:0.082434074 10:0.019220881 11:0.034281978 12:0.026913528 13:0.029623431 14:0.034578196 15:0.020809768 16:0.017604134 17:0.015357181 18:0.015204817 19:0.010556916 20:0.036758871 21:0.027062861 22:0.0045686689 23:0.025281969 24:0.029929556 26:0.011906017 27:0.011035867 28:0.0096166832 29:0.0193452 30:0.0017317334 31:0.011509535 32:0.015583116 33:0.0055560713 34:0.0051342146 35:0.012296877 36:0.014230721 37:0.0032808394 38:0.0051191831 39:0.010699262 40:0.0075559709 41:0.0018932868 42:0.010087955 43:0.0097241932 44:0.0043481795 45:0.0052758222 46:0.0064517054 47:0.0061374721 48:0.0064960988 49:0.0030266107 50:0.0059131117 51:0.0072074836 52:0.0010896686 53:0.0052175257 54:0.0028683661 55:0.004612908 56:0.0023744638 57:0.0037638347 58:0.0034763616 59:0.002173653 60:0.0027585421 61:0.0035089661 62:0.0036948491 63:0.00063711314 64:0.0030020249 
1 1 1:1 2:0.62771143 3:0.38953718 4:0.1811621 5:0.11323249 6:0.11449011 7:0.026704851 8:0.068587092 9:0.085333369 10:0.034531257 11:0.024977124 12:0.041175162 13:0.0060494548 14:0.033024608 15:0.02943837 16:0.023609804 17:0.023191044 18:0.022825168 19:0.035292299 20:0.026273452 21:0.015187932 22:0.014807746 23:0.020163235 24:0.017272995 25:0.011585015 26:0.006418927 27:0.01762518 28:0.007401805 29:0.0066974705 30:0.012785453 31:0.0096524098 32:0.012667731 33:0.0078652545 34:0.0056312227 35:0.0081963787 36:0.007086244 37:0.0088446481 38:0.0040490538 39:0.0027031314 40:0.0058937421 41:0.01031447 42:0.00260001 43:0.001183771 44:0.0054733557 45:0.004989951 46:0.00199632 47:0.0038715258 48:0.0023027183 49:0.0015979928 50:0.0033593502 51:0.0016204952 52:0.0018670231 53:0.00075273719 54:0.0014098179 55:0.001357457 56:0.0018601366 58:0.0021051257 59:0.0011246714 60:0.00052297839 61:0.0011826768 62:0.0010862374 63:0.0010027237 64:4.5472091e-05 
1 1 1:1 2:0.32300545 3:0.2617728 4:0.18729562 5:0.094478621 6:0.12955908 7:0.065495054 8:0.025735134 9:0.053920484 10:0.050100052 11:0.05287926 12:0.044364635 13:0.057698453 14:0.021600048 15:0.055419994 16:0.060451035 17:0.031026877 18:0.033841332 19:0.046951687 20:0.04658168 21:0.032650795 22:0.026880771 23:0.032087944 24:0.02612123 25:0.021404897 26:0.024930574 27:0.023568667 28:0.024390699 29:0.02275553 30:0.027530933 31:0.02474352 32:0.024415811 33:0.02238564 34:0.022541444 35:0.02710485 36:0.022119195 37:0.023083178 38:0.021131298 39:0.023178733 40:0.021959056 41:0.018559505 42:0.01421248 43:0.015246456 44:0.014263625 45:0.012436692 46:0.012632296 47:0.011407919 48:0.010456572 49:0.0092622971 50:0.010075169 51:0.0066979747 52:0.0041600441 53:0.0017087295 54:0.0038949721 55:0.0039829984 56:0.0027215566 57:0.00070501142 58:0.00019879879 59:0.0013725351 60:0.0023147006 61:0.00033490305 62:0.0014528812 63:0.0011618871 
1 1 1:1 2:0.43356951 3:0.35356663 4:0.10716037 5:0.17284757 6:0.0018246961 7:0.079778496 8:0.054447628 9:0.046348732 10:0.079968005 11:0.038097405 12:0.048033738 13:0.058176665 14:0.051378334 15:0.036672137 16:0.068036291 17:0.072941871 18:0.089989582 19:0.067010847 20:0.046796174 21:0.044961224 22:0.047242055 23:0.046154354 24:0.056078221 25:0.058987331 26:0.048467024 27:0.041142247 28:0.040317416 29:0.032875766 30:0.019359556 31:0.023767586 32:0.02696574 33:0.029474924 34:0.023315392 35:0.015922783 36:0.013978764 37:0.0099537911 38:0.010194341 39:0.014602301 40:0.014596358 41:0.014034275 42:0.013753331 43:0.0118885 44:0.0064509337 45:0.0043799544 46:0.0069562661 47:0.0088651175 48:0.010409368 49:0.0086441078 50:0.0075782035 51:0.0023699749 53:0.0027831859 54:0.0043493785 55:0.0052832125 56:0.0060194125 57:0.002965531 58:0.001540735 59:0.0012323176 60:0.0019477179 61:0.0019799944 62:0.0048443358 63:0.0046713684 64:0.0023184855 
1 1 1:1 2:0.44652537 3:0.33705164 4:0.38430897 5:0.24104004 6:0.3001263 7:0.19774299 8:0.21835021 9:0.14314674 10:0.17824662 11:0.11930118 12:0.12928058 13:0.10799416 14:0.114699 15:0.11414864 16:0.11295813 17:0.10287647 18:0.10034174 19:0.1002593 20:0.10259594 21:0.085653367 22:0.08280395 23:0.069413613 24:0.062067361 25:0.058092356 26:0.062062938 27:0.059207523 28:0.056535853 29:0.053238727 30:0.057396114 31:0.057720341 32:0.058161382 33:0.055007771 34:0.054948125 35:0.056680631 36:0.058756842 37:0.057654119 38:0.05839701 39:0.0583322 40:0.057469244 41:0.05784942 42:0.053910327 43:0.054428071 44:0.052396035 45:0.046782284 46:0.042416876 47:0.037095479 48:0.031167692 49:0.026009998 50:0.019889188 51:0.014518883 52:0.011066568 53:0.0098178606 54:0.0086756791 55:0.0085627406 56:0.0071156787 57:0.0067366088 58:0.0054105518 59:0.0046711788 60:0.0037786246 61:3.453034e-05 62:0.00021171927 64:0.00069980692 
1 1 1:1 2:0.68788193 3:0.4145131 4:0.21027124 5:0.16724227 6:0.12053761 7:0.064793436 8:0.10645099 9:0.063706428 10:0.018964068 11:0.036934616 12:0.038784698 13:0.0090544605 14:0.042507916 15:0.029875856 16:0.0076075176 17:0.026777553 18:0.01847876 19:0.01404331 20:0.029302624 21:0.024924893 22:0.010248753 23:0.027104159 24:0.02190943 25:0.010448194 26:0.013457802 27:0.011196186 28:0.010584355 29:0.014896752 30:0.0079942592 31:0.0071823987 32:0.012715898 33:0.0095769766 34:0.0051671361 35:0.0099209081 36:0.0085068539 37:0.0080881507 38:0.0088164018 39:0.0032294582 40:0.0077918319 41:0.0087055946 42:0.0026607385 43:0.0081937895 44:0.0053571611 45:0.0023244259 46:0.0078924086 47:0.0047074654 48:0.0033089885 49:0.0051318442 50:0.0031716562 51:0.0043973241 52:0.005445537 53:0.002485172 54:0.0028789777 55:0.0036722286 56:0.0023486904 57:0.003319211 58:0.0049090375 60:0.0024469346 61:0.0025246774 62:0.0020505789 63:0.0046056959 64:0.0040209743 
1 1 1:1 2:0.70134077 3:0.29840427 4:0.16537138 5:0.12063671 6:0.03630463 7:0.07955187 8:0.080946765 9:0.025939046 10:0.047377007 11:0.012006924 12:0.013771323 13:0.025310133 14:0.01438171 15:0.017997819 16:0.0075791942 17:0.015082349 18:0.016640109 19:0.0049321279 20:0.023584709 21:0.011629836 22:0.011829602 23:0.012943144 24:0.0098053937 25:0.0079412482 26:0.01117559 27:0.0088032566 28:0.010889532 29:0.009757647 30:0.006548145 31:0.0044043707 32:0.0056042976 33:0.0048228154 34:0.0037662612 35:0.0053692672 36:0.0031820998 37:0.0039191253 38:0.0018285066 39:0.0017872949 40:0.0021744207 41:0.0035946917 42:0.0014622582 43:0.0017053809 44:0.00090302053 45:0.00074707834 46:0.00028270487 47:0.0015214022 48:0.0017301231 49:0.0022375516 50:0.0015369615 51:0.0019371575 52:0.00083755591 53:0.00023214179 54:0.00023232477 55:0.00055928906 57:0.00060624979 58:0.00082509089 59:0.0011120116 60:0.0013956246 61:0.00043320259 62:0.0011275616 63:0.00095338925 64:0.000644098 
1 1 1:1 2:0.68738838 3:0.36300867 4:0.1564185 5:0.11181013 6:0.10373077 7:0.053855086 8:0.051100248 9:0.051678981 10:0.04603018 11:0.02547048 12:0.024807954 13:0.035861651 14:0.028637564 15:0.010069434 16:0.0072512755 17:0.014060266 18:0.021400533 19:0.021982832 20:0.02041755 21:0.013889731 22:0.0016923926 23:0.0067037297 24:0.0075146703 25:0.0075328716 26:0.0028933976 27:0.0064482507 28:0.0071462119 29:0.0041297996 30:0.0032160336 31:0.0030047359 32:0.00052955078 33:0.0030130077 34:0.0034387171 35:0.001306439 36:0.0044244722 37:0.0064420051 38:0.0014782933 39:0.0058808994 40:0.0036328165 41:0.0020598094 42:0.0040740792 43:0.0031922223 44:0.0013677439 45:0.00020105448 46:0.0012138588 47:0.0021219119 48:0.0017431191 49:0.0016645805 50:0.0024294623 51:0.00063498116 52:0.00093088546 54:0.0018655706 55:0.00068296618 56:0.0015833361 57:0.00069018478 58:0.001192968 59:0.00086931206 60:0.0019697165 61:0.0012450451 62:0.0009367059 63:0.00046785266 64:0.0010515723 
1 1 1:1 2:0.37113598 3:0.41551813 4:0.31529697 5:0.094766408 6:0.10771628 7:0.099625902 8:0.068648354 9:0.091384669 10:0.080626035 11:0.059628802 12:0.068835707 13:0.023764338 14:0.043732675 15:0.0032916481 16:0.018018538 17:0.013223046 18:0.012047697 19:0.0069396996 20:0.0037246844 21:0.0052981609 22:0.0012572702 23:0.0052591699 24:0.0040140951 25:0.0035585934 26:0.0024401291 27:0.002687755 28:0.0031687155 29:0.0034341428 30:0.0022648171 31:0.0029268461 32:0.0010918601 33:0.0028970282 34:0.0022855912 35:0.0032112025 36:0.004642626 37:0.001885885 38:0.0037229592 39:0.0029441574 40:0.003651794 41:0.0020483851 42:0.00054807044 43:0.00093676313 44:0.00039682236 45:0.001579836 46:0.0013591465 47:0.0010488573 48:0.00097338584 49:0.0013042218 50:0.0012560612 51:0.00054306551 52:0.002096261 53:0.0018505737 54:0.0004132852 56:0.0017218716 57:0.0017367546 58:0.0010309362 59:0.0016206735 60:0.00096390102 61:0.0012790739 62:0.00025130501 63:0.0011930175 64:0.0008230149 
1 1 1:1 2:0.60827373 3:0.36965935 4:0.52949671 5:0.35046906 6:0.22979463 7:0.15698619 8:0.13659499 9:0.12096247 10:0.11719055 11:0.12712877 12:0.11582553 13:0.090991019 14:0.073237561 15:0.055932044 16:0.034272344 17:0.028017025 18:0.01127242 19:0.0067031886 20:0.0062040147 21:0.015408288 22:0.01640947 23:0.01343737 24:0.014212154 25:0.01210512 26:0.0078252855 27:0.0040586619 28:0.0052892331 29:0.013056056 30:0.016807555 31:0.017507144 32:0.01265985 33:0.0089659832 34:0.0058944009 36:0.0063018771 37:0.0092673621 38:0.011802021 39:0.012018454 40:0.011817692 41:0.0095304548 42:0.0060611437 43:0.0044040079 44:0.0035001376 45:0.0050971198 46:0.0062536712 47:0.0076541399 48:0.0067446298 49:0.006261665 50:0.0068472283 51:0.0066603912 52:0.0053949528 53:0.004452694 54:0.0041192278 55:0.0037269123 56:0.005601184 57:0.0072587239 58:0.0081069028 59:0.0070243659 60:0.0073474794 61:0.0075440144 62:0.0060843024 63:0.0050728052 64:0.0035363949 
1 1 1:1 2:0.65318647 3:0.37576027 4:0.13926565 5:0.14721007 6:0.062129561 7:0.049767265 8:0.10853507 9:0.051523666 10:0.10402975 11:0.083471003 12:0.0085588548 13:0.027543907 14:0.031870049 15:0.017520741 16:0.054196181 17:0.027932632 18:0.0063849251 19:0.023681179 20:0.023623215 21:0.040789317 22:0.023102352 23:0.01898989 24:0.030452064 25:0.0068912829 26:0.017124818 27:0.022083621 28:0.01296202 29:0.0042231302 30:0.016140289 31:0.014884965 32:0.0083852759 33:0.0087270252 34:0.0057783422 35:0.0065129436 36:0.009321354 37:0.0071755172 38:0.0028877054 39:0.0048644443 40:0.0050649707 41:0.0058245524 42:0.0050391378 43:0.0015646401 44:0.0012554468 45:0.0037339266 46:0.003590967 47:0.0016951389 48:0.00078620427 49:0.0008845949 50:0.0031249505 51:0.00069674076 52:0.0014287512 53:0.0031534765 54:0.00096848349 55:0.0010055117 56:0.0020307752 57:0.0014228805 58:0.00094316868 59:0.00016839582 60:0.00066061701 61:0.0021133645 62:0.00064990882 63:0.00066784562 
1 1 1:1 2:0.28681696 3:0.55584066 4:0.25227499 5:0.30059374 6:0.21670623 7:0.17876148 8:0.089931174 9:0.13454769 10:0.096751913 11:0.063558568 12:0.035449318 13:0.023375744 14:0.035908705 15:0.026339109 16:0.066077504 17:0.07096039 18:0.056065811 19:0.037487069 20:0.029292851 21:0.012977263 22:0.0052958768 23:0.0018655046 24:0.0017508995 25:0.0066419146 26:0.013364603 27:0.014710431 28:0.0068957966 29:0.00068025916 30:0.0076577252 31:0.011787309 32:0.0092142456 33:0.004070381 34:0.0025357589 35:0.0053097015 36:0.0045791123 37:0.005002654 38:0.0023058515 39:0.0023428031 40:0.0008633034 41:0.001565496 43:0.0035776696 44:0.0036531379 45:0.0026991363 46:0.0043985506 47:0.0042849737 48:0.0020788476 49:0.0012705215 50:0.0056276819 51:0.0064867734 52:0.0039349293 53:0.001068713 54:0.00062035277 55:0.0031345531 56:0.002459624 57:0.00071432591 58:0.0019183789 59:0.003024889 60:0.0034486175 61:0.0035348136 62:0.0032976242 63:0.0013710427 64:0.00086709233 
1 1 1:1 2:0.32799922 3:0.50352061 4:0.34656327 5:0.091818304 6:0.10659709 7:0.081161735 8:0.02754825 9:0.051568952 10:0.041190205 11:0.032050018 12:0.028593963 13:0.014013943 14:0.0083897772 15:0.0040461836 16:0.0054794674 17:0.0059998226 18:0.0091595554 19:0.0063068083 20:0.0069728284 21:0.0034210698 22:0.0060536115 23:0.0040971152 24:0.001789242 25:0.0013900185 26:0.0022480693 27:0.0037937895 28:0.003262756 29:0.0033741084 30:0.0037466446 31:0.0018755559 32:0.0044927993 33:0.0010177416 34:0.002861824 35:0.002418098 36:0.0016280316 37:0.0032190856 38:0.0015283201 39:0.0015178534 40:0.0018324058 41:0.0017700003 42:0.0012333632 43:0.00075581377 44:0.00033466775 45:0.0019449537 46:0.0019605673 47:0.00067964518 48:0.00098069164 49:0.0011109567 50:0.0012872455 51:0.0011405241 52:0.00051106028 53:0.00040649912 54:0.0010507267 55:0.00052302342 56:0.0008532731 57:0.0017686168 59:0.0017138056 60:0.0010639077 61:0.0021153636 62:0.0013515165 63:0.00097892651 64:0.0026162725 
1 1 1:1 2:0.6786951 3:0.58292961 4:0.46150569 5:0.33728242 6:0.26842981 7:0.25701127 8:0.19918605 9:0.18589251 10:0.11811715 11:0.12333667 12:0.13628222 13:0.087063486 14:0.1279627 15:0.11156723 16:0.084906532 17:0.083312588 18:0.068820141 19:0.075434859 20:0.051619179 21:0.038118451 22:0.047721406 23:0.034291262 24:0.016920605 25:0.013999406 26:0.0094988009 27:0.0059200323 28:0.004911097 29:0.0026068628 30:0.003743316 31:0.002623675 32:0.0036673373 33:0.0075991928 34:0.0016509006 35:0.0051366073 36:0.0062893117 37:0.0026686176 38:0.0069426488 39:0.0048485231 41:0.0046378401 42:0.0049542865 43:0.00096516564 44:0.0036327369 45:0.0045392537 46:0.0026905575 47:0.0040014801 48:0.0038533256 49:0.0049640847 50:0.0072644483 51:0.0046668457 52:0.003390568 53:0.0039245213 54:0.0024343449 55:0.0038778085 56:0.0063877162 57:0.0043444788 58:0.0033755178 59:0.0061228831 60:0.0048811091 61:0.0031073124 62:0.0018048228 63:0.0010959813 64:0.00041762448 
1 1 1:1 2:0.50980338 3:0.31984536 4:0.075891135 5:0.12084822 6:0.14386735 7:0.042344792 8:0.12773343 9:0.083669689 10:0.044158623 11:0.073787321 12:0.051284832 13:0.054870837 14:0.076703124 15:0.026175951 16:0.067659986 17:0.077053618 18:0.050615544 19:0.035416934 20:0.077635868 21:0.067730469 22:0.022120007 23:0.04249757 24:0.054908904 25:0.021520279 26:0.025875952 27:0.035547684 28:0.024335909 29:0.021699445 30:0.024051051 31:0.022232797 32:0.02832408 33:0.020451114 34:0.014485021 35:0.026671059 36:0.022012219 37:0.010266491 38:0.015244825 39:0.013090595 40:0.0140261 41:0.014208106 42:0.0079577268 43:0.0089861874 44:0.013981229 45:0.0058037911 46:0.0079573048 47:0.0075696099 48:0.0047736865 49:0.0068180828 50:0.0085233978 51:0.0031243394 52:0.0044353046 53:0.0064809986 54:0.0038856519 55:0.0025608689 56:0.0031220673 57:0.0014065741 58:0.0030086561 59:0.002679317 61:0.0023358472 62:0.0020756597 63:0.0016463704 64:0.0011502981 
1 1 1:1 2:0.38881601 3:0.35525251 4:0.1822963 5:0.12622763 6:0.034150129 7:0.074829164 8:0.057082065 9:0.010919731 10:0.071941044 11:0.019923458 12:0.026723877 13:0.020733242 14:0.024737643 15:0.010598777 16:0.002185583 17:0.01169119 18:0.0027610753 19:0.0073425802 20:0.0048120901 21:0.0050848127 22:0.0033523358 23:0.0037316347 24:0.0028949544 25:0.004194799 26:0.0015792605 27:0.0029813021 28:0.0026842958 29:0.0020494866 30:0.00030121893 31:0.0014876618 32:0.00035489982 33:0.001274176 34:0.0012348666 35:0.0016131662 36:0.00066262084 37:0.00065216015 38:0.0004186945 39:0.0010133612 40:0.0012835883 41:0.0010292189 42:0.00077851027 43:0.00075631179 44:0.0007990451 45:0.0009968827 46:0.0023484727 47:0.0013071752 48:0.00069420027 49:0.001139808 50:0.0017306658 52:0.0011385397 53:0.001019583 54:0.00066972308 55:0.00072011169 56:0.00051975083 57:0.0015845778 58:0.00088367052 59:0.001440504 60:0.0015467044 61:0.0013689398 62:0.0010152743 63:0.0010069402 64:0.0013817492 
1 1 1:1 2:0.74297693 3:0.57653623 4:0.53032907 5:0.43570853 6:0.30123387 7:0.19994163 8:0.17211028 9:0.16858609 10:0.13324441 11:0.12461661 12:0.10317961 13:0.099994234 14:0.08507705 15:0.053159746 16:0.049179535 17:0.032381233 18:0.0284782 19:0.020952507 20:0.033940781 21:0.027396757 22:0.023209477 23:0.01580103 24:0.01114516 25:0.010066823 26:0.0046294069 27:0.0072429237 28:0.0060468799 29:0.0051225437 30:0.0070935898 31:0.0058335424 32:0.0053997265 33:0.007635985 34:0.0091939991 35:0.0073897419 36:0.0031698815 37:0.0025388216 38:0.0035968188 39:0.0065011632 40:0.0083594513 41:0.0075053988 42:0.0084801051 43:0.0075727433 44:0.0075609344 45:0.0042523802 46:0.0011393458 47:0.0023440034 48:0.0039805881 49:0.0024340575 50:0.0055284127 51:0.0070157175 52:0.0071914734 53:0.0043749046 54:0.0028644609 55:0.0015335753 56:0.0015431899 57:0.0033955545 58:0.0055585579 59:0.0059907208 60:0.0064102587 61:0.0035553508 62:0.0012606462 64:0.0020212971 
1 1 1:1 2:0.60998465 3:0.30459354 4:0.17297385 5:0.06397354 6:0.072890619 7:0.063101065 8:0.090719159 9:0.05554635 10:0.062549545 11:0.028661176 12:0.042088279 13:0.025411534 14:0.024273127 15:0.028294353 16:0.027051833 17:0.019360065 18:0.045245508 19:0.025166762 20:0.023441321 21:0.019945913 22:0.016819272 23:0.01540629 24:0.0081061424 25:0.0048060836 26:0.018046058 27:0.015133524 28:0.012375675 29:0.020852481 30:0.0028949401 31:0.0051772075 32:0.01136471 33:0.015104731 34:0.012026953 35:0.015672434 36:0.0068113075 37:0.0084650355 38:0.0074434615 39:0.006022726 40:0.0091480922 41:0.0099799908 42:0.0068733555 43:0.010394087 44:0.0078485213 45:0.0047779219 46:0.0037946502 47:0.0019106207 48:0.0046896091 49:0.0068266655 50:0.0055647672 51:0.0069217701 52:0.0054728647 53:0.0031271349 54:0.0028170433 55:0.0032586696 56:0.0050128671 57:0.0069372468 58:0.0054776247 59:0.005557551 60:0.0014377582 62:0.0012295198 63:0.0029234911 64:0.0036115265 
1 1 1:1 2:0.72330298 3:0.33655553 4:0.16910036 5:0.11684881 6:0.091995267 7:0.090837468 8:0.075515699 9:0.059960435 10:0.051889973 11:0.025316937 12:0.022175691 13:0.022407693 14:0.014588598 15:0.014175468 16:0.0065131543 17:0.0157399 18:0.016539767 19:0.027817144 20:0.020714879 21:0.010567447 22:0.0086507483 23:0.0081374158 24:0.0086412106 25:0.0055360153 26:0.010531103 27:0.0078699065 28:0.0065007175 29:0.00090745157 30:0.0019234649 31:0.0047561839 32:0.0052451397 33:0.0037921361 34:0.0042728231 35:0.00052218235 36:0.0027551941 37:0.0015918872 38:0.003064193 39:0.0018510515 40:0.0017188154 41:0.0027291127 42:0.0016223696 43:0.0018768488 44:0.00097852144 45:0.0017039876 46:0.00071395618 47:0.0014737863 48:0.0003280082 49:0.0023192826 50:0.0027080206 51:0.0011681619 53:0.00041862154 54:0.00043685825 55:0.0016930656 56:0.003025892 57:0.0021022884 58:0.0018761742 59:0.00069074156 60:0.0015945621 61:0.0004228776 62:0.0012840335 63:0.00099318559 64:0.0015827797 
1 1 1:1 2:0.62588589 3:0.65437444 4:0.5022397 5:0.42647966 6:0.30896534 7:0.27938014 8:0.18144573 9:0.20224037 10:0.15183883 11:0.10342064 12:0.12769161 13:0.082010274 14:0.076732754 15:0.073166149 16:0.064267383 17:0.063475403 18:0.058569494 19:0.046427229 20:0.038547588 21:0.039549195 22:0.028026343 23:0.021133786 24:0.019752454 25:0.015392616 26:0.016826882 27:0.011756057 28:0.006638238 29:0.0083339107 30:0.0070478037 31:0.0066876571 32:0.0089249089 33:0.0048925276 34:0.0020986124 35:0.0013747912 37:0.0058283199 38:0.0037935845 39:0.0051735075 40:0.0046716173 41:0.0066755122 42:0.0060248843 43:0.003922536 44:0.0050513421 45:0.0089318083 46:0.012739461 47:0.013487155 48:0.013499009 49:0.011992406 50:0.010884635 51:0.0094803527 52:0.0084559148 53:0.010330844 54:0.01064498 55:0.0085908101 56:0.0075639074 57:0.0078888792 58:0.0094480432 59:0.0096929599 60:0.0094495807 61:0.0089551544 62:0.0079276428 63:0.0077207026 64:0.0055449906 
1 1 1:1 2:0.32686421 3:0.41478293 4:0.2203531 5:0.16088801 6:0.11464697 7:0.1193698 8:0.070227655 9:0.023808772 10:0.0056758335 11:0.030755928 12:0.0023977826 13:0.022971255 14:0.015901356 15:0.0092473299 16:0.015333613 17:0.0095009309 18:0.00035974321 19:0.0032644054 20:0.0042657719 21:0.0094874013 22:0.0078086769 23:0.0079464278 24:0.0050483867 25:0.005896444 26:0.004324724 27:0.00414675 28:0.0026566601 29:0.0056983811 30:0.0025879324 31:0.0033552355 32:0.0050212123 33:0.0049210385 34:0.0010026528 35:0.0019100298 37:0.0015972015 38:0.0017821404 39:0.0032461684 40:0.0041781947 41:0.00066957761 42:0.0014219845 43:0.0029982802 44:0.0026891283 45:0.00073022403 46:0.0010925647 47:0.00018260374 48:0.00026911848 49:0.00018165119 50:0.00016399341 51:0.0010394188 52:0.0010049023 53:0.00079624692 54:0.00040827148 55:0.0016791139 56:0.001624623 57:0.0012806868 58:0.00056107427 59:0.0013452285 60:0.0021572 61:0.001887485 62:0.00011816633 63:0.0012662387 64:0.002007718 
1 1 1:1 2:0.53784008 3:0.39009143 4:0.13072442 5:0.17982239 6:0.072323572 7:0.10351348 8:0.044997681 9:0.032653776 10:0.045949693 11:0.06488185 12:0.035292591 13:0.034334128 14:0.030101712 15:0.039220937 16:0.045248017 17:0.049467471 18:0.026524762 19:0.018643188 20:0.035659534 21:0.046268123 22:0.038181132 23:0.01672525 24:0.023096252 25:0.029204532 26:0.021560816 27:0.017905822 28:0.015524977 29:0.017489772 30:0.015563723 31:0.0070818127 32:0.015455884 33:0.011465878 34:0.0029133986 35:0.006618038 36:0.014893739 37:0.009184866 38:0.0031260743 39:0.0074146867 40:0.0085619678 41:0.0090541834 42:0.0058848513 43:0.002148951 44:0.0045784314 45:0.0055922388 46:0.0031193513 47:0.00061512059 48:0.0039239333 49:0.0026808993 50:0.0072429796 51:0.00093706025 53:0.004930127 54:0.0036176538 55:0.0055616834 56:0.0017016615 57:0.0016283489 58:0.0035476156 59:0.0024821796 60:0.0028716301 61:0.00094635914 62:0.00034386972 63:0.00096249194 64:0.0031266847 
1 1 1:1 2:0.77493259 3:0.50974821 4:0.38175031 5:0.25431198 6:0.19922882 7:0.18368401 8:0.17750064 9:0.16194615 10:0.15221944 11:0.12774653 12:0.10269403 13:0.08831218 14:0.068127627 15:0.056587546 16:0.044543667 17:0.030615639 18:0.025007056 19:0.019680797 20:0.012535003 21:0.013136083 22:0.013821631 23:0.0082078582 24:0.0070791384 25:0.0066338136 26:0.0054465763 27:0.0036106333 28:0.00240372 29:0.0030541987 30:0.00080319987 31:0.0010885761 32:0.0020365382 33:0.0011970149 34:0.0025710982 35:0.0008646906 36:0.003100843 37:0.0042894172 38:0.0031937433 39:0.0031132787 40:0.00067628889 41:8.0967368e-05 43:0.0008195362 44:0.0023119885 45:0.0033933864 46:0.0042509854 47:0.0040602067 48:0.0036786866 49:0.0049382032 50:0.0034359532 51:0.00096368878 52:0.0013567704 53:0.0014043784 54:7.2579942e-05 55:0.00051940595 56:0.00093666976 57:0.0010224551 58:0.0010874342 59:0.001245256 60:0.0009504874 61:0.00060457924 62:0.0015524005 63:0.0021380421 64:0.00082659013 
1 1 1:1 2:0.70652777 3:0.34343308 4:0.18308962 5:0.078528177 6:0.038304226 7:0.070834814 8:0.058242582 9:0.029287139 10:0.051891044 11:0.056802994 12:0.019713377 13:0.0026275405 14:0.015042613 15:0.011341924 16:0.0069305076 17:0.014820015 18:0.015438637 19:0.018274665 20:0.026526656 21:0.019312079 22:0.01291725 23:0.014049486 24:0.0079933874 25:0.0066187267 26:0.0074154108 27:0.0051641272 28:0.0029561794 29:0.0032445243 30:0.0014536473 31:0.0065022183 32:0.0048037586 33:0.0040851913 34:0.0011472361 35:0.0029458861 36:0.00092637448 37:0.0029146608 38:0.001765153 39:0.00081631327 40:0.0036879782 41:0.0036904478 42:0.0043492267 43:0.0042438169 44:0.0015674494 46:0.00050460496 47:0.0013827695 48:0.0010864017 49:0.00042353982 50:0.0021297411 51:0.001268274 52:0.00094067168 53:0.00021974461 54:0.00049882346 55:0.0011393208 56:0.00069305695 57:0.00080224831 58:0.0010532416 59:0.0011966513 60:0.00071083905 61:0.00032002957 62:0.00058255394 63:0.0005157309 64:0.0019196692 
1 1 1:1 2:0.60393945 3:0.61837935 4:0.51871037 5:0.51758893 6:0.40459602 7:0.29606284 8:0.26672063 9:0.22887831 10:0.12390174 11:0.13092386 12:0.071555419 13:0.049774595 14:0.064317597 15:0.026963429 16:0.07043414 17:0.053331805 18:0.058748866 19:0.078622528 20:0.052382776 21:0.074650421 22:0.042767559 23:0.05741206 24:0.040279879 25:0.027217784 26:0.019034923 27:0.012739255 28:0.00046739438 29:0.01243411 30:0.0075551056 31:0.012348686 32:0.014844289 33:0.018368531 34:0.01884206 35:0.014016754 36:0.0076861391 37:0.01400146 38:0.015306141 39:0.021988583 40:0.018986579 41:0.02467534 42:0.027143646 43:0.023593892 44:0.018024595 45:0.01437659 46:0.0088147536 47:0.003773308 49:0.0075362248 50:0.010208195 51:0.013082002 52:0.014244857 53:0.01352089 54:0.013104142 55:0.012430044 56:0.0085432948 57:0.0091809909 58:0.011390075 59:0.011647188 60:0.011105862 61:0.010426928 62:0.01076601 63:0.0090639686 64:0.0059820232 
1 1 1:1 2:0.32773357 3:0.46203645 4:0.2557903 5:0.1822137 6:0.12102205 7:0.053371697 8:0.045975805 9:0.033662316 10:0.026030038 11:0.023691353 12:0.019100113 13:0.0095257347 14:0.014205702 15:0.016490156 16:0.02137699 17:0.01217175 18:0.005186724 19:0.0052620954 20:0.0022453811 21:0.0042059718 22:0.007890793 23:0.01020498 24:0.0047611923 25:0.0045027517 26:0.005712537 27:0.0043257994 28:0.0014733329 29:0.0003678039 30:0.0035462855 31:0.0052763555 32:0.003267443 33:0.0019047906 34:0.0044659478 35:0.0036143284 36:0.002292313 37:0.0028518348 38:0.0020486692 39:0.003098836 40:0.0045861687 41:0.0036919151 42:0.003897463 43:0.0038740894 44:0.001340759 46:0.00098272329 47:0.0018472931 48:0.0013999817 49:0.0013395701 50:0.0018215676 51:0.0018503997 52:0.0017864771 53:0.0012908638 54:0.0011737708 55:0.0017344263 56:0.00255816 57:0.0027442522 58:0.0025200463 59:0.001815415 60:0.0023011492 61:0.0019202016 62:0.0024730171 63:0.0020001084 64:0.00038975354 
1 1 1:1 2:0.52111854 3:0.34184799 4:0.090368704 5:0.16052229 6:0.043252204 7:0.076615346 8:0.067562204 9:0.0057844202 10:0.062308726 11:0.038868036 12:0.054857661 13:0.030682274 14:0.03907565 15:0.041728041 16:0.049097969 17:0.037124681 18:0.023929024 19:0.047398601 20:0.040461262 21:0.040299336 22:0.032517281 23:0.031016227 24:0.027536017 25:0.028472509 26:0.030386634 27:0.023104738 28:0.0063871573 29:0.014869729 30:0.018369525 31:0.018763497 32:0.018137905 33:0.0061965027 34:0.012276775 35:0.01688983 36:0.010769669 37:0.010256695 38:0.0092506639 39:0.0062243078 40:0.0053693744 41:0.0087494472 42:0.0055050306 43:0.0064923747 44:0.0044167813 45:0.0056425412 46:0.0075331301 47:0.0029370343 48:0.0073950978 49:0.0072743999 50:0.003977697 51:0.0055954147 52:0.0045501935 53:0.0038560889 54:0.0043067249 55:0.0048575691 56:0.0031441556 57:0.0043374924 58:0.00057079267 59:0.003584411 60:0.00048342006 61:0.00065986309 62:0.0019947616 63:0.0026319283 
1 1 1:1 2:0.42153935 3:0.4780196 4:0.22806908 5:0.23164678 6:0.12712251 7:0.091353138 8:0.12506895 9:0.10299079 10:0.087465803 11:0.054714661 12:0.054112204 13:0.041131723 14:0.033707528 15:0.039832817 16:0.040015384 17:0.034878384 18:0.027178796 19:0.027609035 20:0.025383426 21:0.02176565 22:0.014831016 23:0.011864107 24:0.0052458331 25:0.0077689089 26:0.0074662666 27:0.0031032747 28:0.0013834409 29:0.0012242699 30:0.0019197732 31:0.0014576553 32:0.00021745138 33:0.0015977867 34:0.0014039791 35:0.00060688705 36:0.00026461737 37:0.00062801091 38:8.18648e-05 39:0.00069064962 40:0.0017700294 41:0.001194776 42:0.0021495188 43:0.0019425059 44:0.00047303628 45:0.0012729394 46:0.0016268501 47:0.0012517359 48:0.00098338382 49:0.0023366681 50:0.0019861417 51:0.0018606218 52:0.0010661697 54:0.0013083724 55:0.0015014857 56:0.00058206644 57:0.00070962727 58:0.0014558114 59:0.0011902756 60:0.00027021149 61:0.00075690004 62:0.0008848662 63:0.00052206236 64:0.0010905604 
1 1 1:1 2:0.63627758 3:0.45949527 4:0.37303039 5:0.25643033 6:0.25247892 7:0.16905529 8:0.086023797 9:0.047545916 10:0.030430913 11:0.017474318 12:0.012766958 13:0.037729263 14:0.049583733 15:0.040013518 16:0.049307931 17:0.055905993 18:0.023835053 19:0.022206293 20:0.048603771 21:0.034786139 22:0.040490378 23:0.044110874 24:0.031574716 25:0.017261684 26:0.030423652 27:0.029370384 28:0.0059546222 29:0.016541617 30:0.019579717 31:0.012604095 32:0.0082436607 33:0.0076073193 34:0.011064615 35:0.01375229 36:0.0063774385 37:0.0099701924 38:0.012521156 39:0.0050525718 40:0.010055946 41:0.0102795 42:0.0049309923 43:0.0060923427 44:0.0098820653 45:0.006848202 46:0.00490127 47:0.0040273954 48:0.0055866109 49:0.0017659676 50:0.0031477207 51:0.0059760666 52:0.001513058 53:0.0034796439 54:0.0039216352 56:0.0034600216 57:0.0036649498 58:0.00016663706 59:0.00283166 60:0.002131894 61:0.0003432182 62:0.0034781982 63:0.0022395662 64:0.00091959769 
1 1 1:1 2:0.4906127 3:0.33584164 4:0.44648024 5:0.23852849 6:0.20698427 7:0.12611631 8:0.11651401 9:0.060124445 10:0.061396124 11:0.062516404 12:0.026294871 13:0.050973269 14:0.027727479 15:0.016045969 16:0.013555401 17:0.011531544 18:0.0075975874 19:0.0025619942 20:0.0016760126 21:0.001802535 22:0.0060360836 23:0.0077325854 24:0.0033304519 25:0.0019490921 26:0.0020931338 27:0.0034849439 28:0.005282151 29:0.0051490293 30:0.0040851745 31:0.0048301779 32:0.0019342648 33:0.0021039131 34:0.0027946141 35:0.0045731683 36:0.0055602618 37:0.0084763276 38:0.0085182032 39:0.0067337369 40:0.0073082783 41:0.0044716258 42:0.0019942145 43:0.0034244769 44:0.0036782534 45:0.0049448856 46:0.0058151363 47:0.0066689937 48:0.0055000956 49:0.0040437504 50:0.0026454243 51:0.00064929095 53:0.0003438718 54:0.0016073619 55:0.0028152558 56:0.0033000004 57:0.0033002284 58:0.002587428 59:0.0017268301 60:0.0015448143 61:0.0010463393 62:0.0014298685 63:0.0017308893 64:0.0007164467 
1 1 1:1 2:0.45566218 3:0.50223923 4:0.33967378 5:0.19305154 6:0.13776863 7:0.048627416 8:0.080614289 9:0.09346853 10:0.076689951 11:0.057037517 12:0.03124141 13:0.029369992 14:0.03436323 15:0.028828551 16:0.018261874 17:0.0088340186 18:0.0031577692 19:0.0064973809 20:0.010032435 21:0.0082155883 22:0.0020740746 23:0.0031802618 24:0.0078715415 25:0.0089605869 26:0.0037785666 27:0.0016616106 28:0.0043148493 29:0.005217824 30:0.002858733 31:0.00096617279 32:0.0032436962 33:0.008240472 34:0.0073887661 35:0.0019807136 36:0.0019252156 37:0.005217162 38:0.0065138822 39:0.0044498828 40:0.0017406272 41:0.0027682916 42:0.0038418964 43:0.0028556291 44:0.0024284421 45:0.0032206694 46:0.0029721759 47:0.0015477484 48:0.00085489839 49:0.0037956243 50:0.0063637653 51:0.0049828716 53:0.0042651137 54:0.0049037294 55:0.003994733 56:0.0031832826 57:0.0030274028 58:0.0040852082 59:0.0045679701 60:0.0042680829 61:0.0042762448 62:0.003099938 63:0.0012545726 64:0.0016207842 
1 1 1:1 2:0.70011834 3:0.5385026 4:0.4217917 5:0.28442298 6:0.28929653 7:0.11200822 8:0.14523201 9:0.10222167 10:0.078398743 11:0.062184059 12:0.0649602 13:0.054313138 14:0.033673406 15:0.038426111 16:0.033398329 17:0.035360842 18:0.027893944 19:0.020003308 20:0.017282762 21:0.013137004 22:0.014428672 23:0.010911926 24:0.012123959 25:0.012211509 26:0.0090097619 27:0.0038085319 28:0.0034494747 29:0.0031027938 30:0.0026799728 31:0.0030531538 32:0.0042176448 33:0.0053716465 34:0.0026877543 35:0.0043137916 36:0.0042107437 37:0.0027041196 38:0.0040840734 39:0.004224077 40:0.0023158834 41:0.0009234492 42:0.0029484872 43:0.0050530962 44:0.0051865326 45:0.0022813654 46:0.00074066783 47:0.00075647325 49:0.0010736145 50:0.0018515511 51:0.0019754905 52:0.0012220645 53:0.00070583364 54:0.00099759696 55:0.00034587262 56:0.0003831534 57:0.0010288692 58:0.0013721855 59:0.00082634794 60:0.00093072869 61:0.0026877784 62:0.0031615684 63:0.0025048772 64:0.0015802467 
1 1 1:1 2:0.52326684 3:0.034506568 4:0.034547891 5:0.019571238 6:0.01645339 7:0.016078926 8:0.001316932 9:0.00090610757 10:0.0052776171 11:0.0042792489 12:0.0028668442 13:0.0032869726 14:0.0037910534 15:0.0069738735 16:0.0051505655 17:0.0024312563 18:0.0022568887 19:0.0010709681 20:0.0039944294 21:0.0020665988 22:0.00092487326 23:0.00010938702 24:0.005055994 25:0.0032442995 27:0.000566869 28:0.0024171249 29:0.00089377369 30:0.002101742 31:0.0015102427 32:0.00056523097 33:0.0013271513 34:0.00044024061 35:0.0020268622 36:0.00051227645 37:0.0021102927 38:0.0029881413 39:0.0012017037 40:1.2438267e-05 41:0.00075138701 42:0.0018246997 43:0.00053334531 44:0.0020735832 45:0.0011532699 46:0.0021104394 47:0.001843296 48:0.0014849498 49:0.00036641718 50:0.0012959415 51:0.0014107283 52:0.00096206963 53:0.0012672851 54:6.3486248e-05 55:0.00098525322 56:0.00083240074 57:0.000679231 58:0.00083377794 59:0.00090004748 60:0.00047045436 61:0.00037047453 62:0.0011814736 63:0.00060849959 64:0.0011327472 
1 1 1:1 2:0.52371489 3:0.66601028 4:0.44622274 5:0.43452168 6:0.33372482 7:0.26902983 8:0.1591198 9:0.2119245 10:0.14066133 11:0.11650709 12:0.14512212 13:0.08552486 14:0.087594036 15:0.066777683 16:0.062492511 17:0.030645717 18:0.017805828 19:0.010178171 20:0.0084325547 21:0.01413764 22:0.015203106 23:0.010330585 24:0.0081250491 25:0.012675767 26:0.016166617 27:0.025167287 28:0.019834045 29:0.016653256 30:0.017361265 31:0.0097694621 32:0.01130557 33:0.019746303 34:0.020364939 35:0.022834518 36:0.020751003 37:0.016842228 38:0.011363503 39:0.0074919567 40:0.0030647289 41:0.0046137753 42:0.0088203178 43:0.009774143 44:0.013315186 45:0.0114595 46:0.008599994 47:0.0033848653 48:0.00028055763 49:0.0036334493 50:0.0050519289 51:0.0072920224 52:0.0073093285 53:0.0068678691 54:0.0036324273 56:0.002024809 57:0.0029035075 58:0.0049694705 59:0.006862175 60:0.0097267473 61:0.0085739249 62:0.0067041878 63:0.0071681247 64:0.0047106284 
1 1 1:1 2:0.56696738 3:0.63591573 4:0.46008097 5:0.35963059 6:0.23881301 7:0.26123085 8:0.20123269 9:0.18475775 10:0.18686766 11:0.11506963 12:0.12387371 13:0.10335958 14:0.059257856 15:0.087634198 16:0.057015849 17:0.034821752 18:0.042802059 19:0.02703515 20:0.022851108 21:0.023103493 22:0.014776292 23:0.011904943 24:0.013924476 25:0.012152379 26:0.0069579643 27:0.001367346 28:0.0035074625 29:0.0073995731 30:0.0057001828 31:0.0063507909 32:0.0065300599 33:0.005171066 34:0.0038945118 35:0.0014526317 36:0.0048132636 37:0.0041334525 38:0.0034495484 39:0.0068837378 40:0.0050317965 41:0.00436741 42:0.0045677814 43:0.0032330836 44:0.004142671 45:0.0026525319 46:0.00236101 47:0.0010569326 48:0.0015114269 49:0.00061712643 50:0.0017232593 51:0.0031980835 52:0.004050091 53:0.0039981487 54:0.0067457511 55:0.004421923 57:0.0023017919 58:0.0034212298 59:0.0028863306 60:0.0012270195 61:0.0022869207 62:0.0019997939 63:0.0021336078 64:0.0024215746 
1 1 1:1 2:0.35044213 3:0.37591432 4:0.18153134 5:0.0606018 6:0.057698202 7:0.090931397 8:0.04971026 9:0.018776532 10:0.013087437 11:0.032343813 12:0.00044620319 13:0.00015142759 14:0.018830229 15:0.0074980951 16:0.0013625678 17:0.0020261191 18:0.0045070245 19:0.010717255 20:0.0081943131 21:0.001817135 22:0.0012535659 23:0.0051256707 24:0.0020521783 26:0.0021037613 27:0.0054051179 28:0.0042788729 29:0.0019662772 30:0.00073517885 31:0.0024222584 32:0.0024667406 33:0.0022303215 34:0.0026053878 35:0.0043012747 36:0.0026248408 37:0.0024848846 38:0.0041024163 39:0.0020137818 40:0.0029784469 41:0.0045961141 42:0.0034069407 43:0.00092146084 44:0.0012684406 45:0.0026373664 46:0.0019824379 47:0.0014889391 48:0.0023976377 49:0.0026463506 50:0.0019366953 51:0.00014022392 52:0.00051401543 53:0.0014992111 54:0.0022161662 55:0.0014751076 56:0.0011147505 57:0.0022828861 58:0.003018081 59:0.0020779955 60:0.0017234254 61:0.0018099811 62:0.0018042548 63:0.0014218546 64:0.0012678055 
1 1 1:1 2:0.44836534 3:0.31640342 4:0.12526783 5:0.13548589 6:0.04144302 7:0.049141071 8:0.070873009 9:0.011087741 10:0.077281933 11:0.021329557 12:0.039930634 13:0.034704186 14:0.047878869 15:0.043842997 16:0.04082122 17:0.053465259 18:0.049857466 19:0.051068816 20:0.059502509 21:0.043593071 22:0.045808851 23:0.052355931 24:0.049543937 25:0.04948197 26:0.043056295 27:0.038691977 28:0.042275536 29:0.032881971 30:0.027819772 31:0.025973063 32:0.022607629 33:0.021660482 34:0.016107378 35:0.012313677 36:0.013127187 37:0.0077046263 38:0.0099928807 39:0.011719164 40:0.011756885 41:0.0085245966 42:0.0088513 43:0.0074606996 44:0.0085919416 45:0.0057081373 46:0.0052259378 47:0.0052185205 48:0.0066964195 49:0.0053407122 50:0.0041284807 51:0.0031815384 52:0.0038877075 53:0.0029286414 54:0.0052090193 55:0.0038495054 56:0.0035223242 57:0.0021410259 58:0.0003265163 59:0.0019359824 60:0.0024874194 62:0.0020681338 63:4.0407299e-06 64:0.00031559504 
1 1 1:1 2:0.30749115 3:0.50815259 4:0.29631101 5:0.20168909 6:0.1817593 7:0.11294269 8:0.014832177 9:0.033954322 10:0.046524312 11:0.01390215 12:0.02678669 13:0.0051973444 14:0.010824016 15:0.015788911 16:0.013714071 17:0.0052493527 18:0.0013564826 19:0.004201799 20:0.0022096467 21:0.0032201728 22:0.0049032404 23:0.0068307079 24:0.0091426869 25:0.0071534161 26:0.0030475373 27:0.0039568004 28:0.0030797617 29:0.0035615754 30:0.0051003372 31:0.0037403578 32:0.003792265 33:0.0024536217 34:0.00094474511 35:0.0021701583 36:0.0023681565 37:0.0026066912 38:0.0038340862 39:0.0029566268 40:0.00069728533 41:0.0025378337 42:0.0055297273 43:0.0040498497 44:0.0023776274 45:0.0014396406 46:0.0013198459 47:0.0030555725 48:0.0019734602 49:0.0017993483 50:0.0015833399 51:0.0011155699 52:0.0013049361 53:0.0012753584 54:0.0020388382 55:0.002244353 56:0.0012192897 58:0.0018408691 59:0.0011549384 60:0.0029014426 61:0.0024315535 62:0.00093348456 63:0.0023221408 64:0.0042786086 
1 1 1:1 2:0.5490178 3:0.36501776 4:0.21892509 5:0.11177621 6:0.12816503 7:0.07323952 8:0.070609451 9:0.051085773 10:0.017053068 11:0.071039155 12:0.043755697 13:0.023611228 14:0.042858375 15:0.03003751 16:0.035056791 17:0.030589931 18:0.024781361 19:0.033738201 20:0.023961751 21:0.036899652 22:0.02768292 23:0.038321459 24:0.022469907 25:0.013000581 26:0.022217852 27:0.018594473 28:0.022947252 29:0.020593957 30:0.025507691 31:0.02362875 32:0.027200105 33:0.020299723 34:0.018865033 35:0.01616337 36:0.011562063 37:0.026986451 38:0.020223331 39:0.022006417 40:0.017232699 41:0.0079553314 42:0.015299786 43:0.014653981 44:0.012645555 45:0.010912348 46:0.008569091 47:0.00907624 48:0.012814611 49:0.011979205 50:0.012221223 51:0.007491472 52:0.0038802535 53:0.0041055546 54:0.0044303219 55:0.0056658826 56:0.0075226954 57:0.0047334568 58:0.0045076563 59:0.00062179008 60:0.0022498613 62:0.00059466995 63:0.0023267514 64:0.0014563056 
1 1 1:1 2:0.39616451 3:0.38645482 4:0.28060825 5:0.080200888 6:0.088070868 7:0.082907588 8:0.082624472 9:0.068920404 10:0.078420814 11:0.064537575 12:0.06404422 13:0.07421248 14:0.081183355 15:0.076437524 16:0.070504988 17:0.066693901 18:0.059784583 19:0.052760348 20:0.064450316 21:0.058533651 22:0.056243161 23:0.045077259 24:0.033345733 25:0.030205074 26:0.028016036 27:0.026937725 28:0.02485443 29:0.020069062 30:0.019301438 31:0.016981932 32:0.019823132 33:0.020391034 34:0.015866065 35:0.017535804 36:0.015343801 37:0.012061077 38:0.014312854 39:0.015456448 40:0.014780801 41:0.01032194 42:0.0088839094 43:0.010515073 44:0.0097675967 45:0.0089845556 46:0.0077676966 47:0.0064149464 48:0.0040893621 49:0.0037439386 50:0.0059898689 51:0.0050159912 52:0.0048112728 53:0.0040315483 54:0.0021719084 55:0.00061769609 56:0.0029180195 57:0.0032079785 58:0.0019828522 59:0.00060559273 61:0.00055338458 62:9.4181412e-05 63:0.0007899963 64:0.00087019796 
1 1 1:1 2:0.74766029 3:0.55614878 4:0.51251663 5:0.37599515 6:0.28932672 7:0.24505097 8:0.19630746 9:0.19234388 10:0.18189036 11:0.16011891 12:0.14885492 13:0.1275728 14:0.11462945 15:0.099528593 16:0.082465611 17:0.05983556 18:0.044728379 19:0.031071072 20:0.020460816 21:0.019206342 22:0.014692405 23:0.0082746195 24:0.0077496337 25:0.0030131384 26:0.00096025818 27:0.00095680048 29:0.00067384515 30:0.0029561246 31:0.0051818223 32:0.0083981323 33:0.0096986819 34:0.0080435794 35:0.0068983507 36:0.0050814793 37:0.0065195331 38:0.0084816949 39:0.0076762046 40:0.007972599 41:0.0084551747 42:0.0086847263 43:0.0093633607 44:0.0083864982 45:0.0060923665 46:0.0043905853 47:0.0039447679 48:0.0021225438 49:0.0014600842 50:0.00056111194 51:0.00018000211 52:0.0022516864 53:0.0033029816 54:0.002421586 55:0.0018163753 56:0.0016209001 57:0.0014652994 58:0.0011327506 59:0.00046201671 60:0.00031631783 61:0.00047845749 62:0.0006782074 63:0.0010840636 64:0.0015072145 
1 1 1:1 2:0.62991317 3:0.52745759 4:0.49336094 5:0.42364605 6:0.34443946 7:0.25436726 8:0.22743828 9:0.13896137 10:0.1092761 11:0.098072883 12:0.054480254 13:0.036200017 14:0.04470496 15:0.041204353 16:0.034371406 17:0.02032416 18:0.013654322 19:0.0086896152 20:0.0058605953 21:0.010230697 22:0.0034762415 23:0.0035522059 24:0.0031451467 25:0.0024260375 26:0.0048424668 27:0.0074813436 28:0.0076139334 29:0.0069253873 30:0.0069562431 31:0.0067379763 32:0.0047661313 33:0.00036596726 34:0.0013238289 35:0.0016438781 37:0.001886954 38:0.0016453404 39:0.0015942601 40:0.0011172706 41:0.00069262841 42:0.0030572337 43:0.0016198308 44:0.0040543011 45:0.0049912591 46:0.0061164089 47:0.0051933645 48:0.004873026 49:0.003829181 50:0.0006700589 51:0.00082314167 52:7.8309991e-05 53:0.0017338545 54:0.0012569901 55:0.0017686358 56:0.0035771952 57:0.0043820183 58:0.0044438016 59:0.003229506 60:0.0038804982 61:0.0020540414 62:0.0011259824 63:0.0015001024 64:0.00013308844 
1 1 1:1 2:0.70981576 3:0.64426005 4:0.53923091 5:0.37941024 6:0.30502148 7:0.28164249 8:0.18977736 9:0.17825423 10:0.17619162 11:0.11435139 12:0.10993703 13:0.095922079 14:0.055509617 15:0.055119345 16:0.043387179 17:0.025137994 18:0.026593076 19:0.022371046 20:0.0043802858 21:0.0094549462 22:0.006157361 23:0.0039940637 24:0.013267036 25:0.014528471 26:0.0087139263 27:0.0135331 28:0.012526418 29:0.0083991097 30:0.0084588188 31:0.0062758509 32:0.005106249 33:0.0077205391 34:0.0082748042 35:0.0046035312 36:0.0043050802 37:0.0051465924 38:0.0033886162 39:0.0044898171 40:0.0057773701 41:0.0031313068 42:0.0028681793 43:0.0019106797 44:0.0035034887 45:0.0040395769 46:0.0011073729 47:0.0023270952 48:0.0055886428 49:0.0062335833 50:0.0055457688 51:0.0041827091 52:0.0026237728 53:0.0027861406 54:0.0030269703 55:0.0034012411 56:0.001838078 58:0.00096539777 59:0.0015504806 60:0.00060523675 61:0.0011642402 62:0.0015427743 63:0.00092077402 64:0.0021603977 
1 1 1:1 2:0.43582374 3:0.42156952 4:0.18818837 5:0.17657147 6:0.20802895 7:0.11723285 8:0.034791848 9:0.10250967 10:0.077905322 11:0.10849032 12:0.097918173 13:0.082444914 14:0.060568237 15:0.095924487 16:0.042683614 17:0.023060689 18:0.062666773 19:0.10282794 20:0.097731288 21:0.069864225 22:0.054056045 23:0.045491441 24:0.056732448 25:0.069560767 26:0.059718708 27:0.030650012 28:0.024094602 29:0.029566918 30:0.034730937 31:0.034504865 32:0.032008918 33:0.025125373 34:0.018830052 35:0.017610965 36:0.019679421 37:0.026374136 38:0.026163471 39:0.022461052 40:0.01686593 41:0.01934597 42:0.021978638 43:0.023502902 44:0.01965003 45:0.014338845 46:0.01016683 47:0.01079966 48:0.010776884 49:0.0085012641 50:0.0068554442 51:0.0020580559 52:0.0044720802 53:0.0058867732 54:0.002855141 55:0.0035058332 56:0.0036852642 57:0.0011432499 58:0.0025061178 59:0.0015241685 60:0.00094513657 61:0.00085215128 62:0.00045272831 63:0.00042974791 
1 1 1:1 2:0.55539562 3:0.3335398 4:0.065739975 5:0.19821544 6:0.10385884 7:0.1248166 8:0.17236893 9:0.067040643 10:0.067525472 11:0.071985769 12:0.029392025 13:0.065010535 14:0.052106274 15:0.062490858 16:0.034423306 17:0.039001894 18:0.058678752 19:0.033256099 20:0.033641429 21:0.072165884 22:0.043838803 23:0.0093250092 24:0.054640467 25:0.039409539 26:0.0068988676 27:0.043374279 28:0.038238314 29:0.0098989367 30:0.026076444 31:0.023646825 32:0.011283264 33:0.020239923 34:0.020379514 35:0.010604998 36:0.014942937 37:0.021869933 38:0.012425921 39:0.0048498425 40:0.01951561 41:0.013430226 43:0.017367947 44:0.017649669 45:0.0047665953 46:0.011282125 47:0.014124547 48:0.0054363092 49:0.0085313679 50:0.012045165 51:0.0085586925 52:0.010351517 53:0.012351705 54:0.01285135 55:0.0067442464 56:0.011220584 57:0.010272117 58:0.0086073456 59:0.0091942281 60:0.013835219 61:0.012922727 62:0.0095169302 63:0.01099626 64:0.0099503883 
1 1 1:1 2:0.4738266 3:0.40453449 4:0.084650431 5:0.2324547 6:0.1308638 7:0.053522908 8:0.15852799 9:0.10624525 10:0.05748193 11:0.069255446 12:0.053730017 13:0.090532614 14:0.0678565 15:0.052811446 16:0.088925635 17:0.068448429 18:0.019535944 19:0.051254457 20:0.071469385 21:0.020506152 22:0.044005657 23:0.062650101 24:0.041698564 25:0.028816978 26:0.034327329 27:0.032184347 28:0.034027774 29:0.016147569 30:0.029345608 31:0.036780269 32:0.025576006 33:0.016396373 34:0.028517918 35:0.026105482 36:0.020323029 37:0.018455317 38:0.014932991 39:0.019127353 40:0.020450747 41:0.010707086 42:0.012250328 43:0.016342177 44:0.015958981 45:0.0093485529 46:0.0077301637 47:0.0069589334 48:0.01059311 49:0.0066576482 50:0.0048821914 51:0.0065653039 52:0.0061903073 53:0.0047334904 54:0.004389196 55:0.0032474973 56:0.0020696015 57:0.0016002728 58:0.0017287643 59:0.0012292187 60:0.0044202095 61:0.0013310849 63:0.00055527284 64:0.0012008896 
1 1 1:1 2:0.50979086 3:0.38062739 4:0.17822425 5:0.15290329 6:0.085004056 7:0.084335814 8:0.0085923029 9:0.05306639 10:0.03134819 11:0.035039747 12:0.043293542 13:0.011431911 14:0.037006198 15:0.041096649 16:0.03126133 17:0.033119977 18:0.037883158 19:0.037332363 20:0.04227305 21:0.030422939 22:0.042000876 23:0.041158346 24:0.041867735 25:0.044313639 26:0.0368031 27:0.041985898 28:0.032455542 29:0.034372542 30:0.030998733 31:0.030368162 32:0.027040682 33:0.023064068 34:0.021054191 35:0.01905281 36:0.01651907 37:0.011909882 38:0.0077847481 39:0.0073862979 40:0.0064714054 41:0.0015257508 43:0.00021030517 44:0.00061410961 45:0.0032318577 46:0.00091036395 47:0.0025499844 48:0.002799364 49:0.0026195613 50:0.0046247912 51:0.0047521502 52:0.0026727004 53:0.0040247028 54:0.0022746138 55:0.0047573777 56:0.0029412296 57:0.0030167968 58:0.0033293472 59:0.0027406761 60:0.0010382028 61:0.00024898149 62:0.0012199972 63:0.0017959813 64:0.0012857823 
1 1 1:1 2:0.64584037 3:0.50032436 4:0.43744935 5:0.28016919 6:0.24421025 7:0.21025586 8:0.15426921 9:0.13282184 10:0.12031947 11:0.091028906 12:0.088351281 13:0.082754886 14:0.0776968 15:0.078347779 16:0.074636636 17:0.066645514 18:0.053953978 19:0.043396811 20:0.04550414 21:0.042060085 22:0.033489738 23:0.026281702 24:0.020846988 25:0.021308765 26:0.018424168 27:0.013945231 28:0.0093791126 29:0.005903887 30:0.0045840273 31:0.0054757818 32:0.0080163003 33:0.0075732699 34:0.0049739536 35:0.0047644487 36:0.0076615678 37:0.0070464849 38:0.0039409488 39:0.003137398 40:0.0051263612 41:0.0050001932 42:0.0031310493 43:0.0020577408 44:0.00199269 45:0.00095436599 46:0.00032165251 47:0.0031471187 48:0.0053771263 49:0.0050597628 50:0.0054738152 51:0.0065492916 52:0.008752076 53:0.0090264048 54:0.0084294242 55:0.0090776087 56:0.0082245169 57:0.0070906075 58:0.0050556576 59:0.0038455283 60:0.0047299889 61:0.0048363007 62:0.0037209646 63:0.0015819163 
1 1 1:1 2:0.64953225 3:0.50067522 4:0.46749632 5:0.47827658 6:0.34756273 7:0.24041475 8:0.23811469 9:0.16257291 10:0.092178199 11:0.08586379 12:0.055199739 13:0.057533075 14:0.059685051 15:0.045068164 16:0.071053246 17:0.052672762 18:0.03556908 19:0.021021377 20:0.00868149 21:0.0024443744 22:0.010083263 23:0.013383732 24:0.032087358 25:0.030125843 26:0.025138772 27:0.012719834 28:0.011456763 29:0.0093458476 30:0.0083045845 31:0.0023365336 32:0.0013087812 33:0.0063931389 34:0.006726967 35:0.0061294217 36:0.011478984 37:0.01554402 38:0.015225347 39:0.01591829 40:0.0092991959 41:0.010712504 42:0.0088766936 43:0.0066624801 44:0.0040948757 45:0.0014654175 47:0.0022439798 48:0.0080430818 49:0.0091196479 50:0.011787235 51:0.010338843 52:0.0072579245 53:0.0051923564 54:0.0068156152 55:0.0058721715 56:0.0086917404 57:0.0079885647 58:0.0050089448 59:0.0019780328 60:0.0042684091 61:0.0069034129 62:0.0070203893 63:0.0073283963 64:0.0065859788 
1 1 1:1 2:0.4762607 3:0.54134404 4:0.45478658 5:0.22485912 6:0.26122694 7:0.11989602 8:0.10665671 9:0.09005873 10:0.11583778 11:0.07871586 12:0.04975618 13:0.045865227 14:0.032406206 15:0.041402539 16:0.026973043 17:0.018758773 18:0.014478382 19:0.012228799 20:0.0076780183 21:0.0014671852 22:0.0032830587 23:0.007234622 24:0.0075947683 25:0.0025640386 26:0.004532589 27:0.0066243975 28:0.0061176988 29:0.0041824776 30:0.0024364461 31:0.0073856514 32:0.010697665 33:0.0069444133 34:0.00235072 35:0.0011818534 36:0.0037425302 37:0.0051118116 38:0.0025375575 39:0.0020099728 40:0.0020657171 41:7.0238117e-05 42:0.0011183283 43:0.0030594689 44:0.0042032635 45:0.0016733845 46:0.0016491783 47:0.0036730893 48:0.0027584146 49:0.0013504873 51:0.0015906491 52:0.0010018087 53:0.00069520407 54:0.00062925252 55:0.00060825406 56:0.001103083 57:0.0016322414 58:0.0019445734 59:0.0021382916 60:0.0016853214 61:0.0014385701 62:0.0011861291 63:0.00072217613 64:0.0016781965 
1 1 1:1 2:0.66867159 3:0.43704895 4:0.38705054 5:0.30585698 6:0.22739879 7:0.22078441 8:0.24310189 9:0.22550357 10:0.19184552 11:0.23045176 12:0.23937667 13:0.20098505 14:0.19958621 15:0.18847701 16:0.16509247 17:0.15414682 18:0.13303236 19:0.13242762 20:0.12398241 21:0.099060064 22:0.099787954 23:0.095707813 24:0.078430795 25:0.08083568 26:0.076118353 27:0.060988297 28:0.05739353 29:0.051526794 30:0.042250562 31:0.038385638 32:0.041768209 33:0.041108184 34:0.037139044 35:0.039732328 36:0.045859763 37:0.037989526 38:0.027173332 39:0.026625232 40:0.02846509 41:0.026818143 42:0.02444443 43:0.021772772 44:0.021715542 45:0.019495975 46:0.012964677 47:0.0089132043 48:0.0087936841 49:0.0097369305 50:0.0098295238 51:0.0060073818 52:0.0027135077 53:0.0037632864 54:0.0021670388 56:0.0029115319 57:0.0032146634 58:0.0011795127 59:0.0037773377 60:0.0054105161 61:0.004274686 62:0.0043639322 63:0.0032351935 64:0.0022584626 
1 1 1:1 2:0.6237717 3:0.44677206 4:0.41509281 5:0.22890865 6:0.17983496 7:0.10694453 8:0.10952427 9:0.13146598 10:0.12008828 11:0.11110807 12:0.091883666 13:0.074246022 14:0.043085717 15:0.012658445 16:0.0052652856 17:0.0028175365 18:0.011817204 19:0.016811828 20:0.017422768 21:0.014638254 22:0.011742778 23:0.0065463901 24:0.0050913753 25:0.0086342043 26:0.010106607 27:0.0074826947 28:0.0026397465 29:0.0026739118 30:0.0048430526 31:0.0051587971 32:0.0069272784 33:0.0065033189 34:0.0048837176 35:0.0047645398 36:0.0020951121 37:0.0013667122 38:0.0045381503 39:0.0085390612 40:0.0099100008 41:0.0069516102 42:0.003800121 43:0.0015383176 44:0.00034345367 45:0.0015881322 46:0.0021747606 47:0.0043577955 48:0.0071073272 49:0.0073319296 50:0.0031344396 52:0.00096980649 53:0.0031835804 54:0.0038670099 55:0.004799506 56:0.0046461873 57:0.0029216407 58:0.001931358 59:0.0013792674 60:0.0015632159 61:0.0037983797 62:0.0047027081 63:0.0035250214 64:0.0037717238 
1 1 1:1 2:0.51699121 3:0.35091942 4:0.14302921 5:0.16816987 6:0.051592305 7:0.088240552 8:0.0091345403 9:0.034063523 10:0.046058989 11:0.016878749 12:0.043454361 13:0.037577634 14:0.035271775 15:0.018465791 16:0.036274729 17:0.021701955 18:0.041239326 19:0.021570413 20:0.032866486 21:0.039554615 22:0.032815044 23:0.032821216 24:0.028931447 25:0.031294893 26:0.02970445 27:0.01925668 28:0.024187855 29:0.022441153 30:0.021462052 31:0.01907247 32:0.018268552 33:0.014577121 34:0.014049018 35:0.016654708 36:0.010805999 37:0.010657964 38:0.0093263107 39:0.0067350715 40:0.0056096711 41:0.0085032277 42:0.0068418873 43:0.007327389 44:0.0064545258 45:0.0044771896 46:0.0048789406 47:0.004195563 48:0.0035677575 49:0.0034997684 50:0.0038264969 51:0.0029656667 52:0.0030506649 53:0.0038889132 54:0.002229623 55:0.00080789489 56:0.0011568653 57:0.0023349229 59:0.0039224651 60:0.0011242302 61:0.0019022328 62:0.0022837819 63:0.00044271585 64:0.002695339 
1 1 1:1 2:0.54334259 3:0.24986149 4:0.15326337 5:0.11991045 6:0.14162681 7:0.05024687 8:0.035857173 9:0.026134013 10:0.026592397 11:0.016334949 12:0.035638458 13:0.027945434 14:0.016620016 15:0.011488277 16:0.010879091 17:0.016185057 18:0.016968949 19:0.012344797 20:0.010579635 21:0.016618471 22:0.014823468 23:0.0060943315 24:0.0060542121 25:0.0040192656 26:0.0093868619 27:0.013309991 28:0.0088389943 29:0.00018614673 30:0.0047481123 31:0.0062225904 32:0.0066224964 33:0.0082029975 34:0.0077016559 35:0.0090313579 36:0.0095426541 37:0.009048038 38:0.0068698088 39:0.0091544363 40:0.0093251402 41:0.010449518 42:0.0089961432 43:0.0092032261 44:0.008350632 45:0.0055518497 46:0.0022629408 47:0.0014374196 48:0.0022946131 49:0.0037863477 50:0.0051682918 51:0.0047614739 52:0.005224523 53:0.00756895 54:0.0084094757 55:0.0063336131 56:0.0045215946 57:0.0038403127 58:0.0029068989 59:0.0035570469 60:0.0030957103 61:0.0012101954 62:0.0010238977 63:0.0012034426 
1 1 1:1 2:0.68632796 3:0.32631094 4:0.14838231 5:0.079245009 6:0.040858874 7:0.041448565 8:0.090255181 9:0.044389355 10:0.048210095 11:0.068475942 12:0.033127009 13:0.027834059 14:0.034948949 15:0.026736413 16:0.018064247 17:0.030639051 18:0.01593048 19:0.01666826 20:0.02334519 21:0.012491407 22:0.0082307043 23:0.0073718875 24:0.014662886 25:0.015329491 26:0.0060398285 27:0.0051248999 28:0.020733786 29:0.014120854 30:0.0025440312 31:0.0049318221 32:0.0018336335 33:0.0071256913 34:0.0089541826 35:0.0039945706 36:0.0030407033 37:0.002736232 38:0.0024548928 39:0.0021011903 40:0.0019870614 41:0.00097036825 42:0.0022239687 43:0.0065968217 44:0.0053959145 45:0.0042789687 46:0.0031147929 47:0.001283539 48:0.0018575401 49:0.0031352908 50:0.0049968539 51:0.0013907785 52:0.0024351836 53:0.00056535088 54:0.0014884879 55:0.0011142238 56:0.00032331819 58:0.0002770509 59:0.00043372141 60:0.0013182943 61:0.00027148072 62:0.00063809658 63:0.00021047689 64:0.00025152387 
1 1 1:1 2:0.32394763 3:0.42602262 4:0.18070224 5:0.15073416 6:0.11449555 7:0.048490805 8:0.017967963 9:0.022741971 10:0.022901361 11:0.040157797 12:0.012135739 13:0.0023013474 14:0.024473988 15:0.022374989 16:0.014306314 17:0.018980291 18:0.0065094986 19:0.00051923212 20:0.0041954343 21:0.010389322 22:0.0089031475 23:0.0032973309 24:0.0016545835 25:0.0030730511 26:0.0061844215 27:0.0023199865 28:0.0012775623 29:0.00065562696 30:0.0035523564 31:0.0037361038 32:0.0028606787 33:0.0028784623 34:0.0041179945 35:0.0022651994 36:0.0026615619 37:0.002190241 38:0.0017173667 39:0.0010358837 40:0.0045296781 41:0.0051586169 42:0.002469761 43:0.0015423341 44:0.0029442844 45:0.0029333416 46:0.0019331123 47:0.0020570435 48:0.0013358217 49:0.00087125473 50:0.0012323281 51:0.00091852183 53:0.0022910824 54:0.0018741928 55:0.001166409 56:0.0039094564 57:0.0028938125 58:0.0010803524 59:0.0017978908 60:0.0025182272 61:0.002181665 62:0.00085503416 63:0.00066145546 64:0.00014452144 
1 1 1:1 2:0.61454274 3:0.38201535 4:0.12871833 5:0.16212097 6:0.12391628 7:0.042002374 8:0.12526183 9:0.08391718 10:0.018515082 11:0.074315994 12:0.0423906 13:0.040991621 14:0.027778358 15:0.037242011 16:0.050495396 17:0.044827685 18:0.020306757 19:0.0089069154 20:0.049782931 21:0.043821533 22:0.0049645328 23:0.024982527 24:0.03039105 25:0.022745224 26:0.014969872 27:0.015647054 28:0.016919438 29:0.023434808 30:0.0096641929 31:0.0086497331 32:0.020577185 33:0.012906925 34:0.0090523463 35:0.013415812 36:0.0096288778 37:0.012917444 38:0.0085272921 39:0.0097597403 40:0.0071541427 41:0.0087732331 42:0.0089780697 43:0.0065403589 44:0.004800421 45:0.0047471646 46:0.0054098287 47:0.007131273 48:0.0024621913 49:0.0035961641 50:0.0056453132 51:0.0031160808 52:0.0014341804 53:0.0032473316 54:0.0015614693 55:0.0042008666 56:0.0015427252 57:0.001780614 58:0.0020667955 59:0.0019935161 60:0.0022539939 61:0.00034725626 62:0.0032445615 63:0.0012951738 
1 1 1:1 2:0.7279952 3:0.59435572 4:0.48016229 5:0.30562976 6:0.26188248 7:0.21929856 8:0.17928994 9:0.19408262 10:0.17109233 11:0.13036685 12:0.13746918 13:0.11589907 14:0.11545477 15:0.10569457 16:0.064080407 17:0.063568871 18:0.045905331 19:0.028169622 20:0.024907234 21:0.010445955 22:0.010573077 23:0.001576251 25:0.0046146153 26:0.0038020268 27:0.00087080915 28:0.0019253963 29:0.0044207075 30:0.001382732 31:0.0013842978 32:0.002016296 33:0.0014885692 34:0.0052684426 35:0.0056502562 36:0.0030823776 37:0.0031716168 38:0.0024324408 39:0.0040372612 40:0.0072616286 41:0.005900343 42:0.0044324861 43:0.0050631018 44:0.0053653658 45:0.0063768968 46:0.0054178356 47:0.0029592386 48:0.0016129785 49:0.0019283798 50:0.0026661464 51:0.0033800787 52:0.0055596306 53:0.0040865005 54:0.0032125325 55:0.0048174867 56:0.0054484482 57:0.006377221 58:0.0058224846 59:0.0055689879 60:0.0056489101 61:0.0045533754 62:0.0045401771 63:0.0041489714 64:0.0038983856 
1 1 1:1 2:0.67511339 3:0.34568097 4:0.19738074 5:0.11058721 6:0.066746851 7:0.050566284 8:0.066050891 9:0.040610728 10:0.032287365 11:0.012540721 12:0.010081413 13:0.010456344 14:0.024566636 15:0.033437346 16:0.014942782 17:0.0098240966 18:0.01040592 19:0.01071593 20:0.012311353 21:0.011812128 22:0.016131086 23:0.0016235489 24:0.013108344 25:0.014637537 26:0.0074804234 27:0.0091165131 28:0.010899946 29:0.01097797 30:0.010470053 31:0.004061992 32:0.001102242 33:0.0041156347 35:0.0074192195 36:0.0013055509 37:0.0023042163 38:0.0031024272 39:0.0021246256 40:0.003657102 41:0.0034213242 42:0.0044246082 43:0.0016235049 44:0.0013296137 45:0.0018441377 46:0.0053402269 47:0.0042259078 48:0.0022105765 49:0.00045498094 50:0.00054029399 51:0.00060524 52:0.0021743334 53:0.0025465664 54:0.0030133915 55:0.0016800171 56:0.00021639259 57:0.00043250739 58:0.0011969743 59:0.0011011358 60:0.0016762211 61:0.001330535 62:0.0016833524 63:0.00029626854 64:0.00024229251 
1 1 1:1 2:0.72420703 3:0.33321417 4:0.15474023 5:0.086157483 6:0.078190763 7:0.085709815 8:0.080035549 9:0.040538958 10:0.039062295 11:0.017210939 12:0.012169002 13:0.0090184027 14:0.0023382144 15:0.01602752 16:0.021910608 17:0.017404484 18:0.011417913 19:0.016484196 20:0.0041205346 21:0.020027835 22:0.011128706 23:0.004814037 24:0.0092914892 25:0.0051233197 27:0.0025863571 28:0.0027064632 29:0.00091784492 30:7.4788015e-06 31:0.00095370835 32:0.0050635074 33:0.0052744603 34:0.0017591061 35:0.0026040349 36:0.001109362 37:0.0032058099 38:0.00071817056 39:0.00036323874 40:0.00081436899 41:0.00066776296 42:0.00062180667 43:0.0010357031 44:1.36483e-05 45:0.00090668399 46:0.0013167881 47:0.00098813813 48:0.00099287732 49:0.0016775214 50:0.00097288617 51:0.00042324717 52:0.00092546234 53:0.00046391555 54:0.00056294179 55:0.0013715824 56:0.00045582152 57:7.2523554e-05 58:0.0011361133 59:0.00088528817 60:0.00038121175 61:0.00034996378 62:0.00033268372 63:0.00026445551 64:0.00030207722 
1 1 1:1 2:0.32471568 3:0.25150814 4:0.156702 5:0.11403438 6:0.07861132 7:0.059232243 8:0.060472197 9:0.08004441 10:0.055247237 11:0.041772511 12:0.092047277 13:0.074560533 14:0.042065667 15:0.048298257 16:0.065118192 17:0.050555171 18:0.052479495 19:0.048371567 20:0.047417196 21:0.050793802 22:0.041497793 23:0.043472173 24:0.043157697 25:0.03787405 26:0.043553981 27:0.035000907 28:0.032387689 29:0.036669329 30:0.029733604 31:0.025418446 32:0.029249574 33:0.02562479 34:0.020711971 35:0.019291673 36:0.016814815 37:0.015262143 38:0.017744232 39:0.013532985 40:0.012575426 41:0.012014832 42:0.011033041 43:0.010994968 44:0.0059978014 45:0.0073805257 46:0.0065561491 47:0.0057759169 48:0.0046237135 49:0.0059731686 50:0.0034134328 51:0.0034815086 52:0.0047088048 53:0.00450577 54:0.0037275847 55:0.0032969035 56:0.0010399982 57:0.0033480615 58:0.00017169831 59:0.00080331312 60:8.0253818e-05 61:0.0006871712 62:0.0012392879 64:0.00052110876 
1 1 1:1 2:0.54835329 3:0.40074749 4:0.40040549 5:0.37008142 6:0.20579337 7:0.11510553 8:0.14248223 9:0.11222859 10:0.078954647 11:0.092175447 12:0.068427944 13:0.046451473 14:0.050239197 15:0.037740086 16:0.014838924 17:0.023965274 18:0.019947677 19:0.0086313001 20:0.0027947526 21:0.013203769 22:0.018453641 23:0.012809274 24:0.0081393173 25:0.016790319 26:0.0120574 27:0.0075058356 28:0.01771477 29:0.012563588 30:0.0051064398 31:0.014601881 32:0.013109305 33:0.0016801508 34:0.0083743019 35:0.0064495874 36:0.00054486283 37:0.0061115732 38:0.0032588457 39:0.0044564924 40:0.0069448117 41:0.0039952722 42:0.0059801078 43:0.0054111605 44:0.0032008162 45:0.0066508006 46:0.0053245557 47:0.0029436274 48:0.0076644838 49:0.0061135395 50:0.0024407074 51:0.0069335567 52:0.0046378397 54:0.0047968295 55:0.0043145307 56:0.001342634 57:0.0049943432 58:0.0051009162 59:0.00045685282 60:0.0059315796 61:0.0070677124 62:0.0007935014 63:0.0052999058 64:0.0052371535 
1 1 1:1 2:0.29553525 3:0.43775663 4:0.201067 5:0.16648455 6:0.095889061 7:0.073524978 8:0.040214616 9:0.017319812 10:0.0093330378 11:0.024348015 12:0.024361426 13:0.016185183 14:0.01183593 15:0.0081936232 16:0.0030345609 17:0.0033385168 18:0.0073432444 19:0.0084074428 20:0.0092285288 21:0.0040710006 22:0.00086386832 23:0.0026642097 24:0.0084376459 25:0.0081757048 26:0.0041999828 27:6.2366774e-05 28:0.0028686346 29:0.0033208351 30:0.0024577882 31:0.0015458631 32:0.0017652876 33:0.0015584424 34:0.001443667 35:0.0018960351 36:0.0021887427 37:0.0010878034 38:0.00089118221 39:0.0023092921 40:0.0018664093 41:8.3318778e-05 43:0.0010381572 44:0.00056222243 45:0.0026148513 46:0.0021555126 47:0.0012626134 48:0.0022666237 49:0.003492913 50:0.0026488516 51:0.0014563476 52:0.00066664484 53:0.00093454512 54:0.0011580333 55:0.0012778327 56:0.00062935373 57:0.00096737062 58:0.0020881966 59:0.0022874731 60:0.0012590038 61:0.00048461082 62:0.00095185155 63:0.0013154181 64:0.0024882812 
1 1 1:1 2:0.26386147 3:0.50102614 4:0.18602682 5:0.19734091 6:0.11823097 7:0.02949866 8:0.078095177 9:0.075987272 10:0.052291248 11:0.045272966 12:0.025441553 13:0.029128191 14:0.028521314 15:0.0090484704 16:0.011753574 17:0.019044281 18:0.015582684 19:0.0073075983 20:0.0038887661 21:0.0003295345 22:0.0046530155 23:0.0049513052 24:0.0049191584 25:0.003241358 26:0.0041942513 27:0.0046458842 28:0.0039680133 29:0.0064306482 30:0.0051298089 31:0.0054036747 32:0.0028232388 33:0.0023248943 34:0.0051442859 35:0.0051101169 36:0.0021356925 37:0.0047903137 38:0.0066027092 39:0.0048142201 40:0.0040656504 41:0.0043202465 42:0.0052000332 43:0.0031371275 45:0.0032441467 46:0.0051186187 47:0.0030689492 48:0.0015301122 49:3.1398624e-05 50:0.0012987062 51:0.0025516303 52:0.0026611658 53:0.001234418 54:0.0016527225 55:0.002276351 56:0.0025667248 57:0.0034003451 58:0.0025705908 59:0.0017719614 60:0.001448052 61:0.0022167923 62:0.0021371471 63:0.0014477326 64:0.0017996258 
1 1 1:1 2:0.68907059 3:0.35711541 4:0.15851384 5:0.096113473 6:0.089255175 7:0.064159514 8:0.097195158 9:0.060693899 10:0.02214108 11:0.046052624 12:0.017247537 13:0.020081525 14:0.037570656 15:0.012714383 16:0.026110511 17:0.047025251 18:0.025822944 19:0.020777911 20:0.019598472 21:0.015847384 22:0.012979181 23:0.0097627001 24:0.0041996634 25:0.019558123 26:0.015714819 27:0.0046973717 28:0.015678886 29:0.0098217968 30:0.011440447 31:0.010264221 32:0.0017437347 33:0.013646306 34:0.012165439 35:0.0035304988 36:0.0083995594 37:0.0082702482 38:0.003513826 39:0.0088709928 40:0.0032821271 41:0.0064565088 42:0.0096694224 43:0.0014111491 44:0.0054447915 45:0.0087878496 46:0.0015103766 47:0.0046466144 48:0.0040789298 49:0.0039696316 50:0.0043975408 51:0.0019939728 52:0.0032367742 53:0.0053336337 54:0.0002275887 55:0.003345516 56:0.0023331163 57:0.001356611 58:0.0019480576 60:0.0022022597 61:0.001553094 62:0.0010922586 63:0.0013800111 64:0.0018637807 
1 1 1:1 2:0.60635873 3:0.24433536 4:0.55847723 5:0.37352871 6:0.045266134 7:0.28969821 8:0.21736289 9:0.030989299 10:0.1725698 11:0.12110306 12:0.035655548 13:0.055567961 14:0.047880613 15:0.034929248 16:0.005626733 17:0.043395366 18:0.035373418 19:0.011694138 20:0.026624922 21:0.017911924 22:0.0053943381 23:0.0014595597 24:0.006286341 25:0.010063477 26:0.00063093736 27:0.011003563 28:0.014186505 29:0.0085648893 30:0.0077824663 31:0.0071613587 32:0.0046026128 33:0.0055530504 34:0.0050949759 35:0.0021321072 36:0.003229319 37:0.0047469579 38:0.0053254673 39:0.005029861 40:0.0052866563 41:0.0018699878 42:0.0018716635 43:0.0027677717 44:0.0016962888 45:0.0017693762 46:0.00071829576 47:0.0015265466 48:0.0020519874 49:0.0026953768 50:0.0013326853 51:0.00016105996 52:0.0019400007 53:0.0010298917 54:0.0017297337 55:0.0016930682 56:0.00060705194 58:0.00062695451 59:0.0020154891 60:0.0023344566 61:0.00032552355 62:0.00060569845 63:0.00089952045 64:0.0017310206 
1 1 1:1 2:0.54074082 3:0.56029726 4:0.49930344 5:0.4324336 6:0.3213889 7:0.25737607 8:0.17519214 9:0.19777732 10:0.09559126 11:0.032297899 12:0.084593427 13:0.039966294 14:0.055956743 15:0.084265654 16:0.041988081 17:0.058151962 18:0.05688583 19:0.048115936 20:0.041065603 21:0.0387866 22:0.02123969 23:0.0091846034 24:4.1371011e-05 25:0.012863602 26:0.016784905 27:0.019846248 28:0.021831602 29:0.022356372 30:0.021970121 31:0.015972101 32:0.015865942 33:0.0059456655 34:0.0040448063 35:0.0013343673 36:0.0074837697 37:0.0088370184 38:0.010860566 39:0.010070634 40:0.015370732 41:0.012427388 42:0.011591163 43:0.0073914538 44:0.0066612666 45:0.0019590263 46:0.0013663317 47:0.0031766907 48:0.004698 49:0.0059526508 50:0.0075083525 51:0.010543013 52:0.011021305 53:0.011435892 54:0.011401306 55:0.0077894182 56:0.0054963347 57:0.0032007839 58:0.00097665715 60:0.0038025309 61:0.0073133113 62:0.0066457368 63:0.0095780029 64:0.0097372787 
1 1 1:1 2:0.69367113 3:0.3231352 4:0.17022065 5:0.055321835 6:0.055848193 7:0.065764763 8:0.062745422 9:0.053192217 10:0.055841592 11:0.041716843 12:0.041073887 13:0.026601976 14:0.016375762 15:0.019006985 16:0.021950871 17:0.019390827 18:0.016340927 19:0.020367468 20:0.021749372 21:0.010021613 22:0.011806588 23:0.011279313 24:0.0040131019 25:0.0075224889 26:0.0036183042 27:0.011023371 28:0.0048249216 29:0.0055291922 30:0.0023415021 31:0.0026433961 32:0.0053082513 33:0.0035648647 34:0.00042457521 35:0.0029520692 36:0.0038807303 37:0.0026791422 38:0.002266165 39:0.00043791676 40:0.0040867941 41:0.0051535679 42:0.0061229906 43:0.0016189194 44:0.0019854922 45:0.0022291726 46:0.0016131942 47:0.0038217529 48:0.0015667231 49:0.0019422449 50:0.0013682034 51:0.0015325691 52:0.001074263 53:0.00024104271 54:0.00070242106 55:0.001159079 56:0.0022414756 57:0.0010819587 58:0.00096625728 59:0.001480004 60:0.0014727233 61:0.00048316542 63:0.00081168427 64:0.001846608 
1 1 1:1 2:0.29103335 3:0.52000786 4:0.13192942 5:0.3181983 6:0.14819811 7:0.070840414 8:0.077968608 9:0.028628498 10:0.07056027 11:0.047097745 12:0.038828306 13:0.010585713 14:0.0061575201 15:0.014206573 16:0.031980262 17:0.012604843 18:0.0011255691 19:0.0029978314 20:0.0083519336 21:0.013437699 22:0.0098816154 23:0.0059610162 24:0.0089970172 25:0.0099214686 26:0.0070150165 27:0.0069808485 28:0.010458781 29:0.006459534 30:0.00084343512 31:0.0034698634 32:0.006077763 33:0.0022600333 35:0.00084821632 36:0.0030914412 37:0.0037942479 38:0.0037685417 39:0.0014673051 40:0.0019372823 41:0.0029536669 42:0.002338694 43:0.0031105805 44:0.0040138725 45:0.004117406 46:0.0040321275 47:0.00397735 48:0.0038899608 49:0.0017531499 50:0.0013308758 51:0.0018132432 52:0.002458102 53:0.0014447981 54:0.00087123953 55:0.0017334153 56:0.0010878723 57:0.0005993019 58:0.0021779533 59:0.0026999295 60:0.0030207501 61:0.0029698753 62:0.003310493 63:0.0032016357 64:0.0020048055 
1 1 1:1 2:0.56613937 3:0.39313075 4:0.50461372 5:0.30510343 6:0.16867571 7:0.13257523 8:0.14441961 9:0.12182601 10:0.10667942 11:0.097645485 12:0.092036972 13:0.071983859 14:0.053882216 15:0.035780555 16:0.017134743 17:0.012095819 18:0.0020393694 19:0.011647635 20:0.014054334 21:0.016375462 22:0.011671971 23:0.010881216 24:0.01350705 25:0.014466908 26:0.016221695 27:0.016439637 28:0.014585057 29:0.01090785 30:0.0054497486 32:0.0048934538 33:0.0092220761 34:0.010616978 35:0.011652314 36:0.011140486 37:0.010558405 38:0.0095655241 39:0.0056734495 40:0.0019366322 41:0.0019874209 42:0.0059486537 43:0.009214321 44:0.010830047 45:0.010244194 46:0.0079472964 47:0.0061224428 48:0.0037091006 49:0.0020793132 50:0.0030983853 51:0.0044950466 52:0.0053746363 53:0.0065875814 54:0.0068941976 55:0.0055222383 56:0.0053420551 57:0.0051606663 58:0.0046937332 59:0.0055180088 60:0.0061509927 61:0.0065195115 62:0.0062447247 63:0.004688588 64:0.003734691 
1 1 1:1 2:0.61244573 3:0.33952524 4:0.082692107 5:0.15857588 6:0.10484384 7:0.1412223 8:0.16171388 9:0.052071314 10:0.075858393 11:0.044163077 12:0.022511702 13:0.051529064 14:0.038265655 15:0.050655682 16:0.0056314441 17:0.047109836 18:0.030563503 19:0.013187907 20:0.04066408 21:0.02520963 22:0.015724634 23:0.024334259 24:0.022514996 25:0.022068662 26:0.02355212 27:0.021834529 28:0.018228141 29:0.01430837 30:0.021829887 31:0.020752186 32:0.0083287171 33:0.019824741 34:0.018303158 35:0.012407043 36:0.0092103919 37:0.015730836 38:0.011803935 39:0.0085663183 40:0.0081823588 41:0.014822346 42:0.01097423 43:0.00353333 44:0.010435659 45:0.010515178 46:0.0031413275 47:0.0079111072 48:0.0082705252 49:0.0044858422 50:0.0023646099 51:0.0046304705 52:0.005734342 53:0.0032290571 54:0.0034446773 55:0.0029050798 56:0.003338734 57:0.00055997089 58:0.0014618352 59:0.0031091263 61:0.0013908766 62:8.1587629e-05 63:0.00033850888 64:0.00011787468 
1 1 1:1 2:0.48599116 3:0.42260834 4:0.4207025 5:0.080721694 6:0.1359094 7:0.10757126 8:0.088734704 9:0.099309209 10:0.081572118 11:0.040969699 12:0.043050867 13:0.032550362 14:0.017665234 15:0.019768156 16:0.0089943256 17:0.015426897 18:0.014309628 19:0.0057159549 20:0.0067464833 21:0.0091395144 22:0.01173695 23:0.011294682 24:0.0038640359 25:0.0069333972 26:0.006417491 27:0.0078902284 28:0.0027058741 29:0.0018702808 30:0.00067547959 31:0.0024972844 32:0.0028951276 33:0.0011906627 34:0.00060419906 35:0.0010085376 36:0.0018979772 37:0.0004617932 38:0.0012248511 39:0.00091831372 40:0.0004799849 41:0.0003056082 42:0.00037184563 43:0.0021110827 44:0.001806449 45:0.00075243159 47:0.0012932543 48:0.0028573662 49:0.0035201242 50:0.0026207755 51:0.00192174 52:0.0016643867 53:1.7625468e-05 54:0.00098938472 55:0.0020130527 56:0.0015009379 57:0.0010795858 58:0.0022377864 59:0.0016248488 60:0.0018524893 61:0.002036815 62:0.0020737738 63:0.0021298691 64:0.0022336172 
1 1 1:1 2:0.31085638 3:0.10893375 4:0.2872439 5:0.15004537 6:0.031625615 7:0.059457328 8:0.050416736 9:0.066797175 10:0.028855017 11:0.030066528 12:0.020353236 13:0.0091339665 14:0.0073796477 15:0.011717481 16:0.015060257 17:0.010737619 18:0.019217238 19:0.00020569114 20:0.010337933 21:0.0062741323 22:0.0016872619 23:0.0044549994 24:0.00303119 25:0.0047818451 26:0.0012387283 27:0.0036768408 28:0.0025256151 29:0.0040740028 30:0.0023696055 31:0.0046251209 32:0.0038228544 33:0.0037208408 34:0.0020491849 35:0.0033298223 36:0.0032979408 37:0.0018572494 38:0.0033846292 39:0.003263785 40:0.0047222009 41:0.0013602155 42:0.0052374972 43:0.004129455 44:0.0027461311 45:0.0051575362 46:0.0029117114 47:0.0031046539 48:0.002288665 49:0.0038165956 50:0.0027379172 51:0.0013942382 52:0.0015741645 53:0.00055586711 54:0.0012455767 55:0.0015850419 56:0.0022462933 57:0.0014300207 58:0.0036725865 59:0.0041805688 60:0.0024840287 62:0.0023725829 63:0.0026741866 64:0.0025126395 
1 1 1:1 2:0.69506704 3:0.27121243 4:0.10028038 5:0.063692373 6:0.077928545 7:0.06534926 8:0.070068497 9:0.046235632 10:0.04135818 11:0.05481544 12:0.061479166 13:0.051998914 14:0.040710397 15:0.036275161 16:0.023554921 17:0.0023519195 18:0.0071072075 19:0.02259846 20:0.033011152 21:0.03192582 22:0.030590817 23:0.018114228 24:0.012917109 25:0.0087199841 26:0.0043532342 27:0.0075591339 28:0.0043286257 29:0.005284279 30:0.0016682307 31:0.0060032557 32:0.0095280934 33:0.011057846 34:0.0094704788 35:0.0096225403 36:0.0044707937 37:0.0035818867 38:0.0039587396 39:0.0066536323 40:0.0045744886 41:0.0054208337 42:0.0030369187 43:0.0023882153 44:0.0018429715 45:0.0024779528 46:0.0018534327 47:0.0012487042 48:0.0010119211 49:0.00052644017 50:0.0011715564 51:0.00015665393 52:0.002146918 53:0.002447376 54:0.00098030005 55:0.00041306945 56:0.00036215077 57:0.0013981007 58:6.9213798e-05 59:0.0008759281 60:0.00048470695 61:0.00081645368 63:0.00025473352 64:0.0014632181 
1 1 1:1 2:0.64183777 3:0.32654398 4:0.17370582 5:0.08530014 6:0.03293897 7:0.079709296 8:0.057324921 9:0.060177418 10:0.023159634 11:0.01634633 12:0.021434039 13:0.016131838 14:0.020249858 15:0.012256949 16:0.012132331 17:0.017807237 18:0.016370098 19:0.0073084087 20:0.020337411 21:0.019317664 22:0.017777696 23:0.013059467 24:0.0099719021 25:0.0082830718 26:0.0097635498 27:0.0039245717 28:0.0023852993 29:0.0058342259 30:0.0032689366 31:0.0037511532 32:0.0044968588 33:0.0057262545 34:0.0014802027 35:0.003526533 36:0.0015344247 37:0.0030922484 38:0.00026620942 39:0.0034100947 40:0.0032627442 41:0.0012163968 42:0.002220903 43:0.0021099462 44:0.0012578704 45:0.0027575066 46:0.0008423909 47:0.0014978919 48:0.0011182488 49:0.0016326491 50:0.0022948279 52:0.0026375815 53:0.0028869871 54:0.0019937415 55:0.0016614288 56:0.0014458828 57:0.00090790312 58:0.0014249592 59:0.0015819031 60:0.00083231306 61:0.00018105283 62:0.0012725531 63:0.0009738508 64:0.00066523876 
1 1 1:1 2:0.67981492 3:0.58214121 4:0.54240769 5:0.39344154 6:0.22077298 7:0.20534706 8:0.13891857 9:0.11306112 10:0.12324524 11:0.07485365 12:0.083955586 13:0.089218028 14:0.071069667 15:0.065217579 16:0.042903369 17:0.040621343 18:0.042856025 19:0.037345616 20:0.036638036 21:0.030108166 22:0.02966049 23:0.026243992 24:0.022283612 25:0.02406556 26:0.015828918 27:0.0094799364 28:0.012116834 29:0.0093101279 30:0.007348359 31:0.003660009 32:0.0062406173 33:0.0039051001 34:0.0036263852 35:0.0045746716 36:0.0032604431 37:0.0031145944 38:0.0030140016 39:0.00072036481 40:0.00078608493 41:0.0027144066 42:0.0016320977 43:0.00056055328 44:0.0014233455 45:0.0010545352 46:0.00075883966 47:0.0028799471 48:0.0028011943 49:0.0014154853 50:0.00093597153 51:0.00055084056 52:0.001437296 53:0.0012854905 55:0.0017323642 56:0.0026825876 57:0.0013356238 58:0.00063618923 59:0.00055716701 60:0.0011743756 61:0.0011635182 62:0.00070087811 63:0.00049438819 64:0.002479696 
1 1 1:1 2:0.66954697 3:0.42907931 4:0.54618409 5:0.34217021 6:0.1615028 7:0.22954555 8:0.20294337 9:0.17989282 10:0.14989481 11:0.13129251 12:0.090070779 13:0.034554779 14:0.050391187 15:0.043587298 16:0.0238651 17:0.036599706 18:0.034037569 19:0.01321051 20:0.017182209 21:0.015581811 22:0.010463282 23:0.018030728 24:0.016090803 25:0.008700868 26:0.0037501876 27:0.0022146985 28:0.0044843176 29:0.0053661523 30:0.0071743013 31:0.0055247036 32:0.0066845807 33:0.0055916359 34:0.002172159 35:0.0016558782 36:0.0028308816 37:0.0044680598 38:0.0031766614 39:0.0036687527 40:0.0013862487 41:0.0015471899 42:0.0032940094 43:0.0035786066 44:0.0050595532 45:0.003511113 46:0.0024455235 47:0.0021186985 49:0.0017290067 50:0.0028314465 51:0.0011819725 52:0.0006866417 53:0.0010753717 54:0.00084686739 55:0.0024199555 56:0.0019253725 57:0.0020428928 58:0.0011076733 59:0.00097005765 60:0.0027679117 61:0.002688286 62:0.0018053029 63:0.0019459249 64:0.0033954049 
1 1 1:1 2:0.69704634 3:0.39473505 4:0.39079633 5:0.32146628 6:0.23403701 7:0.18932587 8:0.20651982 9:0.25783383 10:0.26575879 11:0.24774567 12:0.24414228 13:0.25393935 14:0.25913508 15:0.24537814 16:0.22278727 17:0.20425262 18:0.19071109 19:0.1914901 20:0.19584581 21:0.18595355 22:0.17391358 23:0.17467585 24:0.17170923 25:0.15717844 26:0.14682485 27:0.14562955 28:0.14418966 29:0.13820524 30:0.13114423 31:0.12503284 32:0.11731465 33:0.11030892 34:0.10741541 35:0.10405057 36:0.096582033 37:0.089729559 38:0.084975988 39:0.079537849 40:0.075601019 41:0.073059112 42:0.068875389 43:0.064395979 44:0.059920217 45:0.055308561 46:0.05141741 47:0.04666965 48:0.042407454 49:0.039246683 50:0.03550636 51:0.031976022 52:0.028415864 53:0.024098887 54:0.020759247 55:0.01805122 56:0.016066786 57:0.013992247 58:0.010585749 59:0.0066447149 60:0.0041232376 61:0.0029219735 62:0.0013766861 63:0.00065066614 
1 1 1:1 2:0.74524748 3:0.36843434 4:0.18964794 5:0.13015288 6:0.088896679 7:0.094794075 8:0.10117082 9:0.070365007 10:0.045355282 11:0.013910332 12:0.0081069285 13:0.011044978 14:0.0053319405 15:0.013337249 16:0.016680173 17:0.0073445126 18:0.0099389584 19:0.020932421 20:0.0051108855 21:0.0094492926 22:0.0037937345 23:0.006876414 24:0.0038757793 25:0.0030469746 26:0.0035134882 27:0.0011249899 28:0.0032752253 29:0.0026815046 30:0.0042420013 31:0.0090229001 32:0.0063503008 33:0.0048142022 34:0.0060815308 35:0.0037747684 36:0.003270324 37:0.00046622243 38:0.00011220768 39:0.0039686154 40:0.00086110912 42:0.002314249 43:0.0020368777 44:0.00078932657 45:0.0018452735 46:0.002347454 47:0.001135197 48:7.8109171e-06 49:0.0023159721 50:0.00052553628 51:0.0016096848 52:0.00055526941 53:0.001285713 54:0.00036420532 55:0.00050426378 56:0.00044866777 57:0.00044320749 58:0.001363473 59:0.0019583612 60:0.0029896709 61:0.00032522429 62:0.0010786459 63:0.00052208361 64:0.00063939888 
1 1 1:1 2:0.097323421 3:0.61011035 4:0.22193789 5:0.35299415 6:0.30789511 7:0.2639469 8:0.2067524 9:0.25606591 10:0.087508507 11:0.19715054 12:0.10531794 13:0.085088355 14:0.090914553 15:0.034021309 16:0.067172656 17:0.01028871 18:0.029359702 19:0.016000448 20:0.004856993 21:0.0013662925 22:0.0017546216 23:0.005761104 24:0.0066982439 25:0.00091252386 26:0.0034554014 27:0.0053210668 28:0.0091780731 29:0.010424284 30:0.016249216 31:0.013794004 32:0.02223967 33:0.017678139 34:0.01436505 35:0.013343093 36:0.013518555 37:0.014171103 38:0.011939769 39:0.0097577506 40:0.010904291 41:0.012563547 42:0.0027040887 43:0.0037927879 45:0.00037242464 46:0.002645735 47:0.010389672 48:0.010614226 49:0.010861035 50:0.01226743 51:0.015866014 52:0.011438775 53:0.0085692927 54:0.01086381 55:0.0054942168 56:0.009039533 57:0.0047022704 58:0.0083117599 59:0.0046037869 60:0.0062881578 61:0.0062390676 62:0.0069984652 63:0.003490295 64:0.0050651218 
1 1 1:1 2:0.49224953 3:0.26299563 4:0.36727465 5:0.095781013 6:0.06911827 7:0.047240648 8:0.061397404 9:0.05017604 10:0.071978737 11:0.017175676 12:0.024837353 13:0.041111934 14:0.019494592 15:0.030493193 16:0.01677883 17:0.013681892 18:0.0094733049 19:0.012640465 20:0.0041204982 21:0.010363019 22:0.0095166773 23:0.0030144639 24:0.00035381569 25:0.0024207414 26:0.0033955248 27:0.0031255251 28:0.0026204668 29:0.0036435312 30:0.0063773779 31:0.0043968964 32:0.00078092147 33:0.0011014413 34:0.0037542094 35:0.0021254666 36:0.00024088409 37:0.0008987634 38:0.0025610966 39:0.0034508466 40:0.0025679688 41:0.001585709 42:0.00099260747 43:0.00062899711 44:0.0013421015 45:0.00054890872 46:0.0018402492 47:0.0022065294 48:0.0011136963 49:0.00085015021 50:0.0010648142 51:0.00088479716 52:0.0016417511 53:0.0012464706 55:0.0020171024 56:0.0037089686 57:0.0024129222 58:0.0010062458 59:0.0013248721 60:0.0024673362 61:0.0020252103 62:0.00075215858 63:0.0012546077 64:0.0016772785 
1 1 1:1 2:0.71118832 3:0.40046576 4:0.25528673 5:0.1691314 6:0.097353749 7:0.069124379 8:0.06434177 9:0.059488231 10:0.032582784 11:0.032013624 12:0.0062498612 13:0.012277859 14:0.036615089 15:0.022480784 16:0.039418356 17:0.018847063 18:0.01049591 19:0.0099323163 20:0.015804033 21:0.0055631383 22:0.018924413 23:0.0054032152 24:0.005412272 25:0.017365366 26:0.014463733 27:0.0059751645 28:0.0029056968 29:0.016886928 30:0.0023604266 31:0.0029797328 32:0.0087549291 33:0.0025306945 34:0.0054977438 35:0.010445038 36:0.0012094461 37:0.0095081272 38:0.0045947278 39:0.0024510699 40:0.0033047413 41:0.0042536848 42:0.0018155593 43:0.0044979733 44:0.00074397982 45:0.0022281427 46:0.0041028582 47:0.002837259 48:0.00094392667 49:0.0040285796 50:0.0022902255 51:0.00085166355 52:0.0031702646 53:4.0714479e-06 54:0.0043379382 55:0.00054941797 56:0.0017185977 57:0.0037567282 58:0.0010390944 60:0.0023980392 61:0.0013876668 62:0.00054977945 63:0.00025404621 64:0.0015910424 
1 1 1:1 2:0.59534161 3:0.41464819 4:0.092955905 5:0.1406553 6:0.11082323 7:0.017921987 8:0.14246982 9:0.131144 10:0.023390646 11:0.068868881 12:0.063081711 13:0.050857243 14:0.031847435 15:0.055588681 16:0.035069609 17:0.037254734 18:0.043125602 19:0.029389488 20:0.049221296 21:0.033104321 22:0.01895146 23:0.027416301 24:0.018815513 25:0.027043409 26:0.017196201 27:0.011227725 28:0.028669455 29:0.01254169 30:0.011558284 31:0.016361976 32:0.007339268 33:0.016542734 34:0.013550917 35:0.0019553983 36:0.014418336 37:0.012544251 38:0.0045667131 39:0.0086424692 40:0.0091455416 41:0.0068789361 42:0.0092784343 43:0.0030330069 44:0.0078673355 45:0.009096125 46:0.001976581 47:0.0066511601 48:0.0046420672 49:0.0042878053 50:0.0075549917 51:0.0032419904 52:0.0028713078 53:0.0058328941 54:0.0028875065 55:0.0028388747 56:0.002465845 57:0.0031386254 58:0.0012625135 60:0.0027418433 61:0.0028731072 62:0.00083302843 63:0.00031596954 64:0.0019348931 
1 1 1:1 2:0.6816469 3:0.34889366 4:0.14210328 5:0.1578614 6:0.1180762 7:0.12352066 8:0.12204994 9:0.065797341 10:0.053549983 11:0.027171486 12:0.020438331 13:0.026981441 14:0.010331355 15:0.039311562 16:0.030691198 17:0.026261003 18:0.019530139 19:0.0078514065 20:0.017936676 21:0.018769853 22:0.010176424 23:0.013648094 24:0.030301953 25:0.015944792 26:0.013613026 27:0.021732938 28:0.013379025 29:0.0075289788 30:0.017609099 31:0.013459347 33:0.00029042462 34:0.0132841 35:0.013224509 36:0.0033760088 37:0.0095331869 38:0.013153451 39:0.0053571244 40:0.0052531206 41:0.010982167 42:0.0053763465 43:0.0001767571 44:0.0047649523 45:0.0055252634 46:0.0042643921 47:0.00072775029 48:0.0042772056 49:0.0053944631 50:0.0013613252 51:0.0004104948 52:0.0061747099 53:0.0029103794 54:0.0011223952 55:0.0020210783 56:0.0049607387 57:0.00065498802 58:0.00017145974 59:0.0023595874 60:0.0027915275 61:0.0010726631 62:5.0383586e-05 63:0.0033178656 64:0.0030085372 
1 1 1:1 2:0.66677031 3:0.49436896 4:0.46257483 5:0.36583198 6:0.21980475 7:0.14857796 8:0.15368633 9:0.1357195 10:0.13556492 11:0.14565398 12:0.1130317 13:0.087184039 14:0.079394231 15:0.056159673 16:0.015515972 17:0.0043619217 18:0.0099622958 19:0.033907504 20:0.047183559 21:0.045246929 22:0.039515819 23:0.028139449 24:0.011052603 25:0.0071019692 26:0.019957787 27:0.030322894 28:0.033828603 29:0.028398655 30:0.024845691 31:0.014407733 32:5.9743884e-05 33:0.0010122946 34:0.011232038 35:0.013661997 36:0.018004665 37:0.017225204 38:0.0092155032 39:0.0017276487 40:0.00083877876 41:0.0064430438 42:0.011111379 43:0.017021032 44:0.016117601 45:0.012739009 46:0.0070416948 48:0.0055461468 49:0.0091867986 50:0.010814695 51:0.0095376928 52:0.0088056533 53:0.0065680317 54:0.0045285572 55:0.0054456674 56:0.0046745724 57:0.0059054419 58:0.0053912495 59:0.005417445 60:0.0036065049 61:0.0050892972 62:0.0058877414 63:0.0069279274 64:0.0065355234 
1 1 1:1 2:0.65852817 3:0.49348929 4:0.48080137 5:0.2926358 6:0.22880609 7:0.20230927 8:0.1809554 9:0.13672195 10:0.13795071 11:0.12041864 12:0.08882813 13:0.078548731 14:0.049283312 15:0.042865618 16:0.049070793 17:0.042458316 18:0.040218469 19:0.034614954 20:0.023696906 21:0.018922365 22:0.018946901 23:0.016453247 24:0.011175963 25:0.00535744 26:0.0041617161 27:0.0056393624 28:0.0038746998 29:0.0029419731 30:0.00081330095 31:0.0014951474 32:0.0019900444 33:0.0018927264 34:0.00171381 35:0.0027402379 36:0.0037496709 37:0.0047470584 38:0.0043694996 39:0.0033405595 40:0.002940005 41:0.003849215 42:0.0037149294 43:0.0042352071 44:0.0033850841 45:0.0016575609 46:0.0022836864 47:0.0026594152 48:0.0036508071 49:0.003805533 50:0.0017833845 51:0.0006573059 53:0.00090412085 54:0.0020840701 55:0.0015309761 56:0.00074877508 57:0.00081651583 58:0.0019294023 59:0.0025594847 60:0.0017975052 61:0.0006281422 62:0.00063799284 63:0.00067282622 64:0.0013146023 
1 1 1:1 2:0.49445604 3:0.38572912 4:0.26666496 5:0.090747504 6:0.096770979 7:0.070320059 8:0.03518366 9:0.05597025 10:0.05554231 11:0.088802707 12:0.073922891 13:0.062332641 14:0.098681556 15:0.066919136 16:0.059550359 17:0.059136346 18:0.078029542 19:0.062696256 20:0.069600389 21:0.066112843 22:0.052214891 23:0.042425349 24:0.047665301 25:0.056474188 26:0.051115063 27:0.035972348 28:0.030183433 29:0.028768183 30:0.026498253 31:0.028325665 32:0.035494671 33:0.029311353 34:0.02461576 35:0.026666623 36:0.024821571 37:0.020294878 38:0.020591509 39:0.019093032 40:0.015184432 41:0.011590497 42:0.0092184055 43:0.01031427 44:0.0068173274 45:0.0065709961 46:0.0048607112 47:0.0026471373 48:0.0046018649 49:0.0046449179 50:0.004054604 51:0.0034476965 52:0.0057540013 53:0.0040132047 54:0.0052359059 55:0.0050416904 56:0.0030234374 57:0.0037335627 58:0.0027834358 59:0.0041228758 60:0.0024906098 61:0.0028490821 63:0.0027295461 64:0.0025286424 
1 1 1:1 2:0.36324278 3:0.45660801 4:0.070514948 5:0.26550521 6:0.19109138 7:0.0070858466 8:0.12712618 9:0.16623358 10:0.095882999 11:0.11326166 12:0.11810432 13:0.13893778 14:0.15191707 15:0.097178191 16:0.12186886 17:0.15764914 18:0.096136086 19:0.072230435 20:0.090970708 21:0.092122677 22:0.077868604 23:0.041508974 24:0.060806219 25:0.074020977 26:0.062391785 27:0.053548737 28:0.060707084 29:0.062463014 30:0.049300571 31:0.04968373 32:0.049566575 33:0.03873736 34:0.037665007 35:0.027674102 36:0.032645529 37:0.035349157 38:0.026911147 39:0.025626195 40:0.028597299 41:0.02710893 42:0.022723368 43:0.020018885 44:0.021632374 45:0.018507823 46:0.018934616 47:0.011803962 48:0.012515211 49:0.013259229 50:0.0098259519 51:0.012027902 52:0.0096780147 53:0.0077324256 54:0.0076048227 55:0.0080295724 56:0.0080758747 57:0.0053319459 58:0.0063091834 59:0.0050505921 60:0.0054595485 61:0.0003096656 63:0.0027130274 64:0.0008636 
1 1 1:1 2:0.68967917 3:0.46592934 4:0.40363705 5:0.21514249 6:0.16554742 7:0.16193463 8:0.1434839 9:0.10206444 10:0.061467548 11:0.040404453 12:0.044905937 13:0.047015521 14:0.037617895 15:0.036231026 16:0.0337251 17:0.033822662 18:0.030375954 19:0.023919784 20:0.018008957 21:0.013416675 22:0.014784714 23:0.011123451 24:0.0056837116 25:0.0031849062 26:0.0032427211 27:0.0053721799 28:0.0058658341 29:0.0048098046 30:0.0045587921 31:0.0067918081 32:0.007597253 33:0.0055518569 34:0.0040420263 35:0.0037936654 36:0.0046643078 37:0.0058248542 38:0.0052229752 39:0.0048559818 40:0.0057969476 41:0.0070197395 42:0.0078299965 43:0.0053901737 44:0.003475762 45:0.0052795721 46:0.0063808097 47:0.0059929759 48:0.0048895302 49:0.0052032556 50:0.0066365975 51:0.007135531 52:0.0073964456 53:0.0053459412 54:0.0018367195 55:0.002539038 56:0.0037294384 57:0.0032605498 58:0.0015862356 59:0.00097740402 61:0.0020774506 62:0.0028520976 63:0.003189044 64:0.0026267688 
1 1 1:1 2:0.57224452 3:0.43011258 4:0.19071527 5:0.14490655 6:0.055450206 7:0.10012812 8:0.016689816 9:0.053419776 10:0.042529237 11:0.00083730253 12:0.042109471 13:0.033699254 14:0.026495869 15:0.017657809 16:0.011628624 17:0.02685163 18:0.024136705 19:0.016518256 20:0.0322839 21:0.017070303 22:0.017941584 23:0.033402889 24:0.019431568 25:0.023598695 26:0.013267943 27:0.017056704 28:0.021573371 29:0.017419555 30:0.022260535 31:0.012053591 32:0.013735754 33:0.01957516 34:0.018945814 35:0.019249704 36:0.014336947 37:0.013042682 38:0.018823304 39:0.016086507 40:0.013962101 41:0.017178629 42:0.011324237 43:0.015624407 44:0.010960803 45:0.011671731 46:0.010244837 47:0.011886413 48:0.010990487 49:0.0081774431 50:0.0048787703 51:0.0078575893 52:0.0047228668 53:0.0052658474 54:0.0028335215 55:0.0024914743 56:0.0027370742 57:0.00072888845 58:0.0022874787 59:0.00099430659 60:0.00067715334 61:0.0008644805 62:0.0010658991 64:0.0022819585 
1 1 1:1 2:0.70566801 3:0.32111962 4:0.21256494 5:0.18808196 6:0.077468235 7:0.071468161 8:0.002905083 9:0.065470913 10:0.062699424 11:0.054926713 12:0.085859853 13:0.044024727 14:0.0044538324 16:0.0093223864 17:0.012752877 18:0.00045145671 19:0.022095368 20:0.034384066 21:0.035088 22:0.029346347 23:0.031943225 24:0.031466622 25:0.029819617 26:0.033707026 27:0.031360552 28:0.028842167 29:0.030089448 30:0.028649852 31:0.024567257 32:0.015403128 33:0.01176792 34:0.0056822216 35:0.0053656485 36:0.0055910918 37:0.0092155568 38:0.010291368 39:0.0098608346 40:0.013812202 41:0.012920511 42:0.012675121 43:0.013919237 44:0.013877495 45:0.01324274 46:0.013720497 47:0.014433295 48:0.012377201 49:0.010656544 50:0.0096692773 51:0.01022532 52:0.011381934 53:0.010871163 54:0.010051841 55:0.0095921169 56:0.009266161 57:0.010358527 58:0.010364272 59:0.009668945 60:0.011671485 61:0.012977435 62:0.011990035 63:0.011035678 64:0.012197506 
1 1 1:1 2:0.72261936 3:0.49390967 4:0.42066195 5:0.35771273 6:0.13874724 7:0.16472485 8:0.14282185 9:0.12664902 10:0.12699472 11:0.084783093 12:0.077743295 13:0.082570419 14:0.049042076 15:0.04568481 16:0.035105973 17:0.020887503 18:0.019878023 19:0.016464903 20:0.012903047 21:0.019120144 22:0.012605051 23:0.012199382 24:0.01262344 25:0.0061200227 26:0.0039086386 27:0.0049458287 28:0.0042375891 29:0.003232379 30:0.0040491548 31:0.0026755288 32:0.0029568379 33:0.0065703064 34:0.004885344 35:0.0042563416 36:0.0058427135 37:0.0010896972 38:0.0052988122 39:0.005356549 40:0.00051904645 41:0.0025330459 42:0.0021517032 43:0.00066511432 44:0.0014457577 45:0.002636857 46:0.0010931672 47:0.0050418668 48:0.0035764617 49:0.0009470396 50:0.0038383333 51:0.003625074 52:0.0011249395 53:0.0032311375 54:0.0022012123 55:0.0013794209 56:0.0019609195 57:0.0015777113 58:0.00115513 59:0.0030562484 60:0.001422367 61:0.00060114699 62:0.00089915701 64:0.0021192657 
-1 1 1:1 2:0.47928994 3:0.1018831 4:0.27598764 5:0.36764379 6:0.10579828 7:0.078119917 8:0.14873308 9:0.18519786 10:0.15774841 11:0.11143022 12:0.076035053 13:0.1335499 14:0.13486901 15:0.083747542 16:0.15393207 17:0.13904836 18:0.091563545 19:0.01297569 20:0.12751551 21:0.1050303 22:0.053580706 23:0.068591264 24:0.10957003 25:0.057442286 26:0.024173236 27:0.049960779 28:0.075915866 29:0.053845973 30:0.02075966 31:0.062673144 32:0.064825314 33:0.065336436 34:0.018259637 35:0.055188289 36:0.051884989 37:0.058155225 38:0.0025568581 39:0.051962753 40:0.060672671 41:0.060713717 42:0.0088491681 43:0.036475959 44:0.046765844 45:0.04129869 46:0.0046143258 47:0.024263894 48:0.039437403 49:0.029139418 50:0.0021987392 51:0.0080909908 52:0.022276672 53:0.01282846 54:0.0016513091 55:0.011295177 56:0.015630643 57:0.0051575659 58:0.006683474 59:0.01464737 60:0.011518054 62:0.0095527574 63:0.018990673 64:0.012263586 
-1 1 1:1 2:0.50102788 3:0.12361675 4:0.37354419 5:0.22047737 6:0.014633761 7:0.13014508 8:0.12926185 9:0.13629211 10:0.099542523 11:0.14752892 12:0.09715386 13:0.058806847 14:0.14744759 15:0.068488593 16:0.078661044 17:0.060116274 18:0.05531187 19:0.088280376 20:0.011451833 21:0.014062341 22:0.080179357 23:0.024510534 24:0.021338884 25:0.044069822 26:0.044194167 27:0.04411819 28:0.03905323 29:0.058408398 30:0.05051413 31:0.020129565 32:0.029985363 33:0.047184485 34:0.040734196 35:0.010659657 36:0.047799091 37:0.063352623 38:0.030958337 39:0.028094873 40:0.037909499 41:0.018806178 42:0.01240601 43:0.028337718 44:0.031495052 45:0.025963153 46:0.020006574 47:0.025262606 48:0.021147078 49:0.011283296 50:0.015926791 51:0.015197704 52:0.0060395329 53:0.0023714688 54:0.011492627 55:0.012815632 57:0.0099619896 58:0.014477661 59:0.0017478895 60:0.0019723499 61:0.010269738 62:0.0036070954 63:0.0019722688 64:0.0056594139 
-1 1 1:1 2:0.51259179 3:0.10428357 4:0.30872597 5:0.29663156 6:0.14804561 7:0.17317414 8:0.21625944 9:0.2285649 10:0.1414274 11:0.1001238 12:0.079117499 13:0.092952224 14:0.17876666 15:0.18816498 16:0.11204864 17:0.097704661 18:0.14091754 19:0.14947802 20:0.13372655 21:0.11886602 22:0.1133314 23:0.11031489 24:0.086337876 25:0.071101985 26:0.085542341 27:0.095447838 28:0.076476838 29:0.044835211 30:0.049723608 31:0.060389981 32:0.057862865 33:0.041636212 34:0.036962824 35:0.041134399 36:0.032698849 37:0.029857948 38:0.032073628 39:0.030891975 40:0.03628825 41:0.027734487 42:0.017434239 43:0.025226367 44:0.022224381 45:0.012420125 46:0.018924652 47:0.021801809 48:0.014854281 49:0.0088863414 50:0.016121966 51:0.018226979 52:0.0092348407 53:0.0054772556 54:0.012872065 55:0.010980103 56:0.0016715402 57:0.0065013015 58:0.0086721835 59:0.0076571465 61:0.0045716082 62:0.0021623501 63:0.0054875099 64:0.0013445329 
-1 1 1:1 2:0.51226265 3:0.052950299 4:0.2166579 5:0.31361234 6:0.16693874 7:0.08439634 8:0.12712509 9:0.21422744 10:0.23567467 11:0.12539467 12:0.096029696 13:0.11834542 14:0.12727341 15:0.055912348 16:0.19534787 17:0.19089 18:0.06155927 19:0.065294053 20:0.14405443 21:0.12583903 22:0.078577845 23:0.031989723 24:0.060440026 25:0.095601921 26:0.072687895 27:0.031516677 28:0.075399392 29:0.11105732 30:0.07921191 31:0.016520046 32:0.042601464 33:0.068620118 34:0.062039751 35:0.028318864 36:0.023744142 37:0.045659105 38:0.050557022 39:0.0098101713 40:0.010914854 41:0.033009712 42:0.03933445 43:0.0044161503 44:0.010746396 45:0.025702928 46:0.030925137 47:0.0065170246 48:0.0076568033 49:0.01272249 50:0.010370588 51:0.0067011086 52:0.0043174839 53:0.017093471 54:0.0016021478 55:0.0073595092 56:0.0011670409 57:0.014343994 58:0.0036794027 59:0.0012267791 60:0.0016294842 61:0.0065699662 62:0.0033345473 63:0.00050374414 
